-1.0657991992577418 -0.4406586703289936 4.097749200960851 -0.9281648640326606 0.11185151514520275 -0.15908132474062078 -4.314344409087105 -3.8581097402417934 -1.7371828601135726 1.930200361819767 -1.2014146242374006 -0.12038376108714319 -1.3550624196744314 4.282511489589075 -4.0376644827520485 -5.040615817438688 -0.2525223392635823 -0.2838267628422073 5.796742935863966 0.23264693522635443 -0.18687235387726203 -0.185419287171141 -4.509606356820927 -3.499353105162231 -0.8958565256101312 0.7334946044693637 -0.3355365895070136 0.9283082065714535 -4.139973427710458 2.117008858698248 0.8955223096960172 2.406556129918246 -0.07118335386905454 -1.2785289592525975 0.19023949053567274 -0.9875959646310337 -0.21941551514244179 -0.29215179951182485 -0.18284316388155541 -1.6988290736437686 0.508199621771264 -0.45072079507682805 -0.7233071485692627 -1.9120565613344962 -3.5996865147006902 6.785311911584324 -1.5816616573040456 -2.712880683463942 -0.3105242263741058 0.2201211120695169 -2.391152569973853 -0.3752526862650602 -0.821690461124804 -0.5575050324486682 0.729980380383564 0.42404475855767704 4.215611915097081 -3.048791879498566 -1.607141587283786 3.590790375362184 0.5054259541650571 -1.9811819704589277 -2.409136242887967 -2.430070530665739 -0.1840678134837877 0.9368753174008818 -1.7340080880543642 0.5684631630127318 -0.34536398434670035 0.16287140918442744 -0.4900839043006686 -0.8625080285211846 1.5315081220976063 -1.4526030088508979 0.10874676942096347 -1.7134242922865812 1.0013951586130283 -0.4842298798500533 0.07073986987470057 8.64416257730239 -0.5099213066887787 -0.8806342630456112 5.137360506124056 -0.3475779944651373 -0.1038617717040911 -0.18893609683022267 -5.429223086448356 -1.510660517605349 -0.6168909638244758 -0.40138424109343596 1.7808742027028388 -2.326644808378186 -0.8514304096934602 0.8261394090071129 2.656505572820603 0.05151009182312765 -0.5173979693286652 -0.4134380448856106 0.08233352133480105 -0.47882250219513 0.021140955385257402 0.8653191731736539 -0.0830042695847742 -0.12289712505106846 10.881008633607143 12.509840083978535 -9.380829219662324 3.29366188670815 -7.085841271379291 -4.843478968196564 0.32233706190389927 -1.3513487383584786 -1.7252017627772664 -0.002761257476931725 0.12776355584496762 -0.37984430363495664 -0.8430586857195056 -0.49979953347450357 -2.258985224804385 2.3543116489902314 -5.88774226691126 -3.3509855197649903 3.574874886672148 -4.021024288866443 0.9968365039701567 -2.8939426463471456 -1.305319420489 7.567854488230443 -0.8154299251155893 -0.001555177002695676 -3.1127319991778037 -0.9969129537973004 -0.6687750182950599 0.4464994245807839 3.522045488232046 0.3876283660243562 0.3606400888274472 -3.0691682086835113 -3.3547913967032565 3.277958144027218 -10.1071914334401 9.953307417049398 -3.3525077894295316 3.2795482142236234 -1.0339758331540678 -0.6732362729296533 -0.551244641392477 -0.860246405950537 -1.2651331803079768 -1.2432361486029209 1.1106618782832278 -3.4301855905025906 -0.4596926057829247 0.4383588404921558 -0.48046295882891893 -7.970819786803502 -0.34045714733552623 -2.209443741490073 -1.0429152112149949 4.174493302106716 -0.23866382574636133 -1.1027551711140038 0.4848887913970319 -0.03709219203104263 0.32372244211103746 0.08061594725240442 -0.32711754601978216 -4.818264596396221 0.028038778112557148 0.3626178554781048 11.501343780204532 -12.106009072257354 -5.869284490305503 -5.40645489453081 -11.842856385486725 -6.745013292238021 -0.6169457843056146 0.080088798370608 1.4917015189834395 0.550916250751177 -0.03689759328943729 0.14859214861983355 -0.8644265290941868 0.10499371550113347 4.420588702166726 -3.0581302571035702 0.5892134381077787 -0.5502283876414807 -0.7776684064329338 0.439098252777345 0.2567175412683793 0.6963443514898715 -0.37969984816386937 0.43636671411712563 -1.7353042229771094 0.5511633915029304 0.7651580400030757 -0.8528142052427287 -0.8469928462984904 -2.4334017047626024 -0.9250168448800388 0.6373731577142816 -0.7567897114404238 -0.9771347399854928 6.414179197170754 1.0313817173359672 -3.076431050968964 1.860323167553574 -0.49677055119556623 -0.39068320663416684 -8.070704546743244 -1.6122920668317213 -0.3759751547381981 0.7423458061406616 8.945552976400412 -3.891225637029215 0.5311379024968179 -0.6703048767686866 -0.9245320491219224 -0.4711432284734211 -0.5961119875504961 -1.6004536948906556 -6.570929190941355 0.15676936987854595 0.23736033344110516 -0.8210817675200066 -11.304389123846134 -0.6199483283907752 -0.8668350642122018 -0.5499228963788104 -5.7210788894739935 -5.992429292069194 -0.682457651237425 2.0091739022937753 -0.1811678556031978 12.05835893569107 -1.1472315018715469 0.34136279897337235 0.9776544138320553 0.17995802458201818 -1.1865225661506629 -0.9923756482598732 -2.444880134991584 -0.44747329381034207 -0.6524782128709934 -1.3830361778484073 -0.7291584147561041 -2.029029777148247 -0.5011370418766545 3.4034060012056866 -0.9753768466018382 -2.0423228589740563 -4.409504690495954 -2.236617619696685 -1.0638072480837721 -3.089308703157772 -0.7926556749402873 -0.9325987037200608 0.18508662392837313 -0.6058599905180423 -0.024414283172171748 -1.3996377831176505 1.2634137728960462 -2.3945142348319117 -0.7454610861013106 0.30662617149093363 -2.522159812506465 -2.7869444877458194 6.265005259665114 -6.646682669730759 -3.1529980725882445 0.18483826198879566 -0.12237227666299033 -0.5056370258691253 -1.762915464094481 -0.22423995690560677 -1.4346891615748478 -0.4429915523617725 -4.875698741199418 -0.6923453073832757 3.5743564699791386 -4.204835698448644 12.97583611725505 -10.608534177197242 -1.4093024282908817 -1.276522945568165 -6.652859296165905 -1.8369168492983732 -0.9711404470190138 -0.7609852030797783 -8.134265529929204 -0.42104789503817686 0.2202092945975016 -1.117824213094422 -11.639284555101154 -7.510253688010893 -10.118149214946616 11.108978978418325 0.6689126298838531 -5.5274154326871034 1.7625194824861241 -2.2548175677992757 2.742165653223601 0.7133138792069701 -0.4322262022938291 -1.4479682233994304 -0.9183155544025294 -0.980938474598906 -1.523671139228286 -1.8879434972250857 0.11079501512558086 -0.661096902550381 -14.566337621319622 -8.263455163041804 -0.23937628393840676 -4.101747947268664 6.753619736663039 6.017135882375059 -3.0925214053406638 -6.336996433945449 0.17398925019197947 -0.5402945876036448 0.03841185271536302 -0.4865355967370149 0.40156206812550255 -0.0761992776071718 -2.4312282963363216 5.046957821552402 -7.042263807429002 6.89293552304534 1.0377338314372582 4.925570453235103 -0.18137275546734238 -6.544434920807534 -2.3509027747111615 -9.244571716107664 -1.1628002806513713 -0.6775628189241754 -2.5381184780929256 -1.2170535173208263 -0.8069948934224286 -0.8282566196236726 1.8750117409208316 -5.443532017275454 2.319542584370482 -3.1257774294080125 0.5465948942738725 1.1490407414260513 2.6101203687575554 1.0185213402936133 0.3318362363425019 -0.5911980064379028 -0.5423274796507339 -0.8925992890238696 2.128012755837243 -0.5769834823307122 -0.8785543384855629 -1.2954030043746336 -2.1179798192981596 -6.679613562521935 -3.724463322373077 3.8347362342980538 0.30690427775255713 -4.681679195948004 -0.7476317988567636 2.1174548925108128 -0.4900925499104615 -1.4396103443426709 -0.07426798087140188 -0.29621161014110553 -7.773649754672292 -0.2625650322155207 -0.7533236786020282 -0.809756567970224 5.380845598035825 0.146526486744003 0.898747626198893 -0.6964642719866964 1.0832535820501634 -4.572297104994996 -4.733202596890903 -2.476462248124029 3.421684994717633 2.811617832488199 -0.7968589476502452 -0.6082773892561939 4.024590711103954 -0.05701588174964864 -1.6981876906771574 -0.11296725987479041 -2.7513395394048303 0.8303481208828455 -1.5138658996413281 1.5641702140232887 -0.532644270359032 -2.644805726058599 1.7403087031986484 -3.5517403456906225 3.082371016766589 -1.7344559265336519 -0.4420579396043122 0.19495381744848286 3.2704679441605666 -0.13765102312879787 0.15885521470754627 -0.8650347140306867 -2.8826109731960976 -3.700064895981127 2.0972126268872495 -2.1696346626117458 -1.0897968320904228 -1.5371048040184552 1.036298133909775 -1.572405608371797 0.622628189816129 -0.6329165631882364 -0.1907956090272614 -0.13054561110953888 9.719583815292701 0.10847502649042727 -0.12643537959282308 -0.8237512347382414 -10.931256339929874 1.2561960983237193 -0.5658983731865295 -5.378135878488863 -1.4220162605822273 3.410687049004174 -3.485028446472458 -2.6527858053067064 -9.300381730143453 4.939026042927823 -1.1765487238936554 1.0542160521338868 -1.8197484031197386 -1.189229043829715 -0.9621820824181433 -0.03087558880985897 -0.9158113012254336 -1.4460627071360654 -0.024833818067083478 -0.4530554778728797 0.18347579804236616 4.992406666458658 -1.0450048882363607 -0.22278907910340906 8.34906327690571 -3.339270033677384 -0.6231480411358349 -0.7652870093472643 -2.795550924737895 -0.8126167261531223 0.022180389442692756 -0.5908308198469111 -2.5169494213068915 3.138744428392866 1.7109066621765985 -1.364643241905373 -0.3617019632571503 -1.2861528373761841 0.6843876619707395 1.714116677159009 -3.1607733510017137 -7.969875944896305 0.749091229422196 -0.6449897565712827 2.697224290455763 -0.637368018823852 0.41848222727520684 -0.02523029027959962 -1.705901035808721 1.9891117751460303 1.9739379701074349 -1.9746828046023361 -0.12987454819252475 -5.589762217842647 -1.1227533428694758 -0.6402188822749977 3.212005028101821 -5.5226976144007205 -0.28145075048234014 0.5340731502977809 -4.355785381827865 -1.0973418443672627 -1.2073366494815898 0.24225053377142972 4.491919740205108 0.09678786196076991 -6.064100025437436 6.385834804450265 0.20718263276995907 -0.48389338512118685 -3.478180402703006 0.5560249561283693 1.4719140580418846 -0.17155393123926582 -0.17556829282289113 -0.5855109812617125 -0.9934135510249689 -1.184949678288008 -0.7974669235599072 -0.55558987566796 -3.6962047184273903 3.7656190799608056 -4.110388094073343 3.1222854948686587 -3.2610573393980893 -2.141073305318474 0.2904147709915809 -1.0167078058526624 4.84844989923829 0.8055783730174026 -0.6128228441806146 -1.4613939618880238 10.026428240983865 -1.5047372248127746 -1.2486020560997384 -0.5847452194360474 -4.074498353752073 -1.9167684995532661 -4.715966466760795 -2.360649193949835 4.741498587288745 2.0629420712912565 2.5432232115220743 2.0335631789062423 -7.907506836371223 -0.1566159417309607 -1.390603446197395 -0.30426302997192106 -6.95334215652233 -0.8576268905977307 -0.1838823259777526 -0.9739742833037957 5.948345500018279 1.2132605152985139 -5.163157484926456 4.4565482607488125 -0.20618002931182966 2.3827431349224417 -4.596671661801752 -2.101893069870261 -4.406015986723022 4.461715381814181 0.0375459941217149 -1.8247533146068298 1.99701579444281 -0.040637893282560685 -0.2191242498625746 -0.44390832843943795 -2.126221129810087 -1.9679367887078387 1.7056914239547267 -1.8697689981887804 0.013988340162868521 5.112420328890728 0.08803406943194411 -0.10994640094222909 2.87417369248173 -8.189159903073353 -0.12942913526828229 -0.9999075794698483 -0.58056517215968 -0.967769887530672 -1.0441626598380995 -0.9539535722476384 0.47881147744303715 1.0664406526360848 5.415691042287066 -7.333865409564641 1.4000250779125158 -1.8784899519359741 2.9999580430026858 -8.593351087888596 -4.488055475845198 -3.7732112381599108 -1.1784529629147373 -1.049626902203589 -2.000083010843683 -0.18659064612234844 -1.8005272189612218 -1.2573461705981634 0.6901514660284416 -2.2950166935588037 6.707341051518276 -5.669530949889119 -1.0682933526273757 2.7469547377740033 -5.239627153679841 1.4464249219732306 0.8826003573088766 0.17523253386078852 -0.17003061474261033 -0.5620981602480397 -6.881778239858117 -1.2239647357707717 -1.4073666478602567 0.2012311834015318 -3.35296558195989 3.3898157023893494 -1.5455563488986088 -3.6976689489230363 -0.04008290628369813 1.3811275548497588 -2.746593955157794 2.577345456614052 -4.692748273969209 3.1799410235521157 -0.052774580136430826 -1.1087963471830804 0.4826555700636751 -1.0237447155524195 0.46102325883501255 -0.2099724230378251 -0.21781785592613148 -2.978001853117737 -2.4588382451943667 1.8127453105482934 -0.6563076018648902 1.697879466878052 -7.400846725423045 -8.449981089596836 -3.5835173031470995 2.063265890298073 -0.9636003368716417 -1.198497175531749 -13.056901403073587 -0.8811387556613142 -0.2852489244850012 -0.3616972275042605 -9.597575467963583 13.380740235100214 1.1443384181469403 -0.5691186871303243 0.5780983240763053 -5.393637488230881 0.8178832071983126 -1.0544188243554375 -0.6660101035511597 -0.4099806542477716 -0.4550214032649469 0.4765737179983569 -1.6661994814349927 -0.04240474543829348 0.9076067215590484 -0.6542030053696537 1.157295426895056 0.12846947017141 -1.5591086725846044 -2.642146917393106 -1.418510029463774 -2.5762092432022734 7.958842432704758 -5.390713954373463 0.33112083458187536 6.343243244640853 0.14047893032831058 -0.21859338943687237 3.6691569205540953 -0.8443521650471849 -0.3210184097069578 -0.19209313409583487 -4.029448078265838 -4.438783189159677 -2.332824261761697 0.9513721033806952 -0.802423236274559 3.1268940340627673 -9.276109917607803 5.474434266817603 0.9343190498130607 4.5301082512621855 -0.3507602528775453 0.2134559844780414 2.393331721698046 -0.8433008518081321 -1.091118276432173 -0.6321899283993886 -2.7878616470006135 -0.028149736424413565 -8.642317767935507 -2.915382768193165 -2.5561644803427916 -0.4029410637935544 -2.0200081420011653 0.23405343502709858 6.707439981755601 0.2559040029315717 -0.16580811786022442 -1.0571732532355604 -0.3000786914227313 0.1840350116777946 0.06337030061414031 -0.4277840260887429 0.4763896265011926 -2.6836195614061387 -0.3267777472928706 0.35803732828315815 -0.027341616508030717 -6.277005058801716 1.9584528596190094 -0.9732227370351575 2.2359447621287445 -4.224330933979036 -0.4499118138813956 -0.14344364752851765 -0.7412356347159365 0.35088301738371713 -0.2340221831067055 -1.026384617949128 -2.9811162999219665 2.073415767159417 -5.885418130016005 4.9747665593428385 0.37341604404115925 2.9268884935143857 -0.8725276770036333 -0.5456309647705896 -1.8434884894272592 -2.48252839316602 -0.8144630909708445 0.3730054677106245 -1.079726541403908 0.22223276853160556 -0.8554429522122239 -0.5558460188358405 0.9645511891320749 -6.163475396657288 2.683557675320894 -3.149839362934319 0.1457209122398148 7.071852127128317 0.6899758977298813 -1.029804788226138 -5.65337998036409 -6.572978084850439 0.24380117972606444 -0.5841999635743457 -6.738085625519984 -0.8600491703723772 -0.13996059605038985 0.0060487235574767555 6.941129490008529 -6.128487332379189 1.6403948607429426 -1.344652958598425 0.7169742339127921 -4.995478687952386 1.331555435029193 1.262885235091731 7.818871399320359 -8.863060912517438 -1.0390013682354693 -1.3472025081699293 -6.795208853444056 -0.6213395575208652 -0.7612278399157939 -1.4233713895486677 7.677368648224987 -1.009217194340544 -6.740354771021894 -6.530750688732004 2.205782718224052 0.2547862714831661 -9.59816510128923 -9.761460968200911 13.8419676120403 -5.506511232300026 -0.815810035178382 -0.9357520492579817 -4.065713259589505 0.04561196551430788 0.02358876313957054 -0.6421814851821458 5.949670254970146 5.123819633847353 -0.6993483478554773 -1.1274487308470191 -0.7148454274057221 0.7314129934427934 2.0897715706464672 -1.7269693502383698 -6.518079142918062 -1.605494333456424 -0.5190062074808126 -1.1713041990686908 -2.9047994863254756 -0.9536799394041288 -0.3325239378331598 -0.8123950589228572 4.452368409713302 -1.0233059729444007 -1.200400785837754 0.732659690196201 -0.4247033260676456 0.9194291945294107 -1.7100261897374378 0.005580999330507905 -1.9849052861572496 -0.6534957166951965 -1.0341443991987185 -0.5754082030909821 -0.30716955564832377 0.05859638216879744 -0.5527425221858686 0.08129648510188203 -2.073674951723445 -0.9486095685057727 0.06879732959312017 -2.915934680138261 -0.478277192390903 7.3543760171425845 5.600760880836855 -3.9408840337185422 -0.3111362439195064 -6.9991408077375015 -1.463663251216363 -1.0565961672358164 -4.6983267447559225 0.1174128549819379 -0.4415747999556085 -1.098906411913924 -3.0282977517203666 -1.5977878550055944 -5.419104336555487 6.76766537458425 0.5705657671210487 -4.946916283129061 1.4905925102087327 -0.9386522292098 0.9495713792973339 -5.393940245211129 -0.032736849164389833 -0.9523358380642584 0.30685941928855426 0.7423935366483488 -0.6155452560000838 -0.6028723608455361 -0.16171654619436626 8.807336442043265 1.885927669655288 -1.9066267067128662 -0.4993386737864091 -4.697869709890014 0.19984711369836464 0.28311667178373007 -4.968132235127041 -5.539945550590973 -0.9050285917959205 -0.8830515042160906 -2.593171802712103 -2.2140901950722536 -0.5660278952693903 -1.5620324573192212 1.559297136470342 -0.14192723777040242 -2.419157148298604 5.537612700539595 -2.4455634427216455 -4.097669717851233 -0.6643258197482914 -0.9643166017193491 -3.2119836462649967 2.227883177730936 -1.1208254984635113 -0.8711882256902305 -2.67628723482229 0.0007697419109137702 -0.7882657130803916 -0.42808149445132454 3.670337614163208 0.48445928618966927 -3.3381821117406543 -3.632254045223561 1.2356915288415482 2.051011781581261 -0.14010778709191374 -5.737036094408665 1.89839411892984 -2.519440759454455 -1.4276016681205976 -0.5616500118640986 1.4306610717663975 -0.7143815426067068 -0.5391812744847977 -0.614378758778705 -2.203499930500211 7.002862617258869 -1.0196771966480163 1.2177709319911956 -0.5932755740972362 -4.311324081240232 -3.084357306145419 -0.7786314930791635 -0.24749763067005362 -1.881759781637234 -0.33654365603868075 -0.7694189645457715 10.292793359203822 -0.4671906371900119 0.07995533966238297 -0.91506058273255 10.998706904833067 -3.989582695376 0.28639802241395057 -0.7181687221823495 -7.644639457365871 -4.811692145321123 -3.46783586087087 -1.1942884200481347 1.6289341026613406 0.6710647524590485 -1.3195320771068155 -1.1211177065045248 1.126836159910574 -1.0212056642355234 -1.2656390860239715 -0.66706570288253 4.415433133311617 3.4263517232761087 -7.762929944890928 8.509250709006237 -0.23707422408821596 3.1095935856246695 -0.819894027765367 0.304679892918371 -0.31362058327141196 -0.6737567614077759 0.1285420462611336 -0.48859118477555696 -1.0787636368397855 -0.5676163809300065 -0.620143850211592 -0.5166825260326181 1.2516210722122103 -1.2824416909857979 -0.3608696243629158 0.4352634228005098 1.4181290476903088 1.1586054233020204 -5.229461947540541 -3.352995961433981 -5.689336296070695 1.5086919928668139 