-1.2955649721640161 -1.755738004491373 -1.467367639619975 -2.364019151498114 -2.0141979745358745 -3.6347266844851256 -0.5303387241348007 -3.0092416592382243 -1.258607760947788 -1.9146815615188792 -0.6785503410979049 -2.640706709781114 -2.006769082951818 -1.6295032201741568 -2.348652092108455 -1.733698751136956 -0.7564223265469405 -2.4320390963936824 -2.211101262010198 -1.268194514875347 -1.5931997811076817 -1.9419321767842805 -0.6470909829324639 -1.829952948562758 -2.004141335132403 -0.6486334177476518 -0.8595057560163823 -1.5598750705958118 -1.518891796906116 -1.8448830380780823 -2.0854047484698994 -1.6077490970642254 -1.429133102770627 -1.6538111038377394 -2.528922678361847 -1.8916747029728724 -1.6538969065403406 -3.188545528323253 -2.5016045148695354 -2.0106636646285776 -2.1314214867774677 -3.29071705336235 -1.641162370164793 -2.238678057512902 -1.8822861081210405 -2.256432032183471 -0.9965295983009861 -1.2126521962190417 -1.1819111074954525 -1.8739149537391966 -2.8730520268214286 -1.7059892006250932 -0.29299219601687326 -1.6450489984248777 -3.58622506026792 -2.0674413380681345 -0.9869016575367308 -0.6911778879336777 -1.2721588162561897 -0.06481036608205851 0.03918050139688008 -0.17146708511773084 0.2410013953362656 -0.5237198897256835 0.17412311272311026 -0.11695477348478052 0.43546777727819636 -0.1661384328299978 -0.18732509474315734 0.6171557012368418 0.5021180623781006 -0.014145900368133785 0.006067270382672087 0.8602086832476608 -0.15997087213727917 0.38209518956041005 0.02159065124350915 0.2590381740186463 0.6076402770342858 0.10839943688544393 -0.37806161092010304 -0.36670605016908353 -0.8039769757678399 0.11566467479290182 0.27463558592839216 -0.004739295337995225 0.15256817101374187 0.3009112915525145 -0.18951735352718704 -0.6059231596501007 -0.03725642846490622 0.46839433809133246 -0.0054493319492842736 -0.20935047877320867 -0.05688509672519556 0.1790691636937733 0.2847854977010151 0.36135981982151305 -0.23051614793698771 0.42017320459663066 -0.7278149107156167 -0.1645767627950075 -0.4544951501504749 0.5983146598411868 -0.28764422774048126 0.07560733586328822 0.4986491500007605 0.07524577513518675 -0.20769560921361113 0.17757457021791517 -0.11243400615919041 -0.7436338328739143 0.4188590179809908 -0.3257477231038504 0.3560980694956338 0.15336936527620865 0.1453787360344208 0.5911852885500589 0.06308466476167934 0.7822493974066125 -0.03750750457825791 -0.13905622664767306 -0.139259459890721 0.30068978500856663 -0.1514055221333804 0.37214664364219396 0.01824069542282526 0.3575683831367164 0.46635613003456244 -0.12704980984081393 -0.01353431488154365 0.0031025493278138065 0.20241074655201438 -0.0801425020274736 0.09444504390120785 -0.4421550171316385 0.9003291977768169 -0.2672525012604732 0.11065523176878571 0.11238948308635123 -0.36079551409535005 -0.10161220673490885 -0.2393729914804101 0.1061569225206329 -0.2186883093946847 0.3829858651087457 -0.10605264537921515 0.15420026857358152 -0.041693832843553005 0.28064829345391107 0.5540914509185092 -0.1472693994836683 -0.12021126052272105 0.7154044162687182 -0.06812482736571698 -0.6010748690469155 0.697469359525231 0.18755952851715388 0.005008589878799409 -0.1537324950460874 0.1424762900017465 -0.10392949960351491 -0.18826499329324 -0.26944455764172576 0.2785693117422885 -0.4925342243981917 0.5952745645069052 0.19275451885774791 0.23609887416275768 -0.0009832566643862132 0.10039039967711615 0.0847986684955385 0.8066589996942365 -0.6649397590268183 0.4506236779573315 0.2849170527776426 -0.08978723803235171 0.2573470082486408 0.4259485766330018 -0.0848021040791518 -0.2621420493165772 -0.11012522468915172 0.014436517842623153 0.16235710547780594 -0.6464046880330762 -0.09455286386829626 -0.031760281885235796 -0.08443476215048093 -0.3266620708437949 -0.2123749445980192 -0.6493630443577104 0.09141005704636575 0.07331088937902616 -0.16513048192932944 -0.43981401135995085 0.45907729860307556 -0.18843942339688616 -0.054703677293579306 0.043306714786885435 -0.8974531155447606 0.016250778929301466 0.2535549281605184 -0.17885717737561013 0.1436817929285388 -0.643775195352548 0.08430077607887504 -0.5032122978513179 0.04017984687894412 -0.4086895120671434 0.4519577541501668 0.2134289669803758 -0.1294671672033468 -0.08631725868060057 -0.1843536163418208 -0.6708169999150889 0.3381738547771272 -0.43106376698649795 -0.30276258591972693 0.046711584314000895 0.16587183564360344 0.46702548396636434 -0.5269776290674046 -0.034102767446266335 0.2694419116113115 0.246155994525878 -0.2865207426961747 0.1964459190012008 0.1474708272097686 0.7400324007871426 -0.2563816691805279 -0.2876443500731111 0.13486631072307845 -0.7696274574507166 0.11023673473579701 0.4323267862241727 -0.24257167548524342 -0.29349180530802205 0.6634294547106572 -0.11874320681026417 -0.2966894180214268 0.2823142993169271 -0.10467890225624385 -0.6134844443902642 -0.37299566009047697 -0.39634573104110415 -0.041635616481342556 0.5074789937676654 0.5875340803296 -0.14359720123159755 -0.023144837976605305 0.285433002285414 -0.519710659707502 -0.3417494092638462 -0.35778544308309246 -0.25823772441100024 0.10176445672489773 0.2219274943708035 -0.1483683326030702 -0.1032347769977934 -0.47411540979599154 0.43970771537143666 0.22280034661098044 0.20578076924186237 0.1389041993432248 0.26820768907986325 -0.00362575050162044 0.13703799035422254 0.2612300491199841 0.18938027994449555 -0.716354046640262 -0.512354815827406 -0.3690241578212741 0.5345652736891551 -0.3035792360561885 -0.29470860806481536 0.3096136227545482 0.30033673206870537 -0.04371102226315331 -0.06917126017737497 -0.37058391947819413 0.47897247767680134 0.44465794709415324 -0.5061705064674454 0.21257051362124907 0.1803233211167015 0.1369122599137245 0.31496918327716705 0.11122854550856948 -0.21945496129223152 0.3043925723764839 0.5490374076055649 -0.10050225438353426 0.13694679291656195 0.24213310132045893 -0.16315914421861288 1.0579974648592236 0.3514126360684535 -0.6285178582865751 -0.02067750437419834 0.029351136512355887 -0.5856077394041238 -0.022747107805417277 -0.04499655646819432 0.716548635742347 -0.30044579881369116 0.29889558348345985 0.6004358529771748 0.4131024141495621 0.29589681297905457 -0.2766562802914857 -0.13679451386063063 0.056552130682316924 -0.44830418941937844 0.024695154626978966 -0.8741185181773886 -0.14307367127959125 -0.35779474871213984 0.27773549649083035 0.423904368902345 -0.2956199206443082 -0.6065950894995216 0.2559820702458326 0.3589151533347225 -0.008868870761142341 -0.6603286588753141 0.5910798334182188 0.2205899295662311 0.6177384920152337 0.6743552663694828 0.042554380024586835 0.6220698268176164 -0.06329794124354705 0.18367238903973984 -0.10186832291438085 -1.0099384327421856 0.2821769730692039 0.5635372252631722 0.02643869075231361 -0.4114695665688572 -0.0963002647398175 -0.026494841820900766 0.2461566311528317 0.6822072814390291 -0.4170597315453273 -0.04571941141661908 -0.3473161094026548 0.22801025057510152 -0.0009748493695258934 0.28381064456147914 0.7063464625767351 0.4563699600509695 0.8573799439206095 -0.0804893631909562 0.26635242353922095 0.4380287424889376 0.428606297225836 -0.1398149390365036 0.8828249693282391 0.08335901821454919 -0.2900148486883236 -0.3302964346354003 0.32815749663175114 -0.0979287327259326 0.2897391923744649 0.20065720216416488 -0.31238447840540023 -0.5263642284991321 0.4079178556053458 -0.2713469488857397 -0.18741599242191798 0.1051544479398233 0.24763579328629934 0.05817418198570986 0.2083361580688532 -0.042235599237905 0.37017580218226365 0.3923044810939156 0.19954742350205262 0.1588310975235641 -0.18062154429925983 0.6680567760157 0.609223515672712 -0.3239275960127835 -0.408488335519994 -0.14422155939692116 0.21633676666029475 -0.4320002345578802 0.5342655085967434 -0.41820384495615087 0.526921545366747 0.3336647163661296 -0.07938821905773959 0.3690590327810409 -0.177351709101629 0.20709708570624466 -0.3536975855377687 0.08143380884703923 0.18843472698244113 -0.1600149778136873 0.04371062111937304 0.4381640130653754 -0.237613297386083 0.026919441901001387 -0.08143143942367276 -0.10156415756058028 0.4697712267692081 0.44894846261840216 -0.7337166591784474 0.1722169351274328 -0.18518571153950686 -0.28545585172863286 -0.48997173754077084 0.4194133987859328 0.08015988190210407 0.6776266187760085 -0.22915962613559276 0.1655218793489238 0.20279857005983035 0.16613681933693894 0.055257403011735415 0.4309488731661949 0.03030536223754039 0.6781134830505423 0.1948792589371229 0.3584496263589603 0.25659777928482463 0.5994306269944427 -0.5014446904875774 -0.6069375374919525 -0.6271260595892739 -0.08349065054358196 0.17266333648951832 -0.27855242102644917 0.23447716961733944 -0.14020247274825623 -0.44766883101631666 0.07788273662810319 0.42659237850857284 0.33377114567824423 0.24771551494804603 0.18175988801725268 0.14966304546457432 0.0683614519566335 0.3484701957374444 -0.44013819401600257 -0.45253255083857946 -0.4452601222881059 0.2434386673234644 -0.534562165005797 -0.08317068692014641 -0.8647637405253576 -0.05546672450529395 0.2448477279063318 -0.016205288861247124 0.04757230919383296 0.5590714816926993 0.22807307543323044 -1.1892878703435648 0.0014700489437861574 0.21868266115141635 -0.02354711266664498 -0.08570888030408287 -0.5161168682445875 -0.2374425240409335 -0.26130798794239807 -0.110422241001776 0.030606250989932603 0.1605793182001183 0.5807314406709968 -0.16900712573517881 0.5870264493451912 -0.30576233426674554 -0.07336825179666906 -0.11292001570453192 0.5121690802906905 0.13163156556505118 0.21789928916299744 0.0034919692890706495 -0.13889930663462594 0.39087466119722186 0.04025621097020225 -0.027812496019526862 0.73191836600467 0.12066214104923963 0.19344645408407898 -0.044937421016505906 0.09400682612602768 0.014624816294682949 0.5899714041829214 -0.057502137397407775 -0.25669236557295333 0.1427086086014591 0.08476179357332173 -0.2614669733102834 -0.34456649644858645 0.019422152719455455 0.20163878985139114 0.27740006235336073 -0.004010640332976785 -0.47372203530562257 -0.5997952844387854 -0.5062373250060688 0.030669800734709606 0.2291294545458544 0.019655466444030597 0.5628350781375602 1.0809481078570293 -0.4119387736587843 -0.35963084817671953 -0.4477955010761145 0.736782242746742 0.3945957341394081 0.36613348621694053 -0.2712840797563513 0.0015280587234138563 -0.4013081213844305 0.36344956691332214 0.04919382403397288 0.30101817590716706 0.7935555208754933 -0.5114448036283388 0.36899735997336774 0.15109917036935208 0.022086190408333588 -0.2656389157840596 0.12036620561706549 0.3199406005776275 0.14913994885190449 -0.06974785258785292 0.4982258018528727 -0.45433444522251093 -0.522390008104039 -0.08796667595276315 0.030139364129297568 -0.7422895378229332 0.24361686934113974 -0.6064431557713752 -0.5041356988841738 0.5543010947410046 -0.01786528635430823 -0.27726862495134097 -0.8554005950346728 -0.3477545623255357 0.1039278239198689 0.13947685859913725 0.49042886008950215 0.010369883960488917 -0.40137759398929995 0.2937944147445809 0.4156146306606877 -0.5066332237185323 0.2105610442781724 0.3587294090461459 0.05850081559802112 0.050643414548107356 -0.33054071343286856 -0.5832716961841101 0.42457699771482466 0.0868753966361643 0.5478329011358124 -0.10699481209820301 0.04541775707073389 1.1687071302201724 -0.5618890712851614 0.0628513933292359 0.9839457165028153 0.5171013436903487 0.3589140618119002 -0.5769929020435487 -0.1246089082519871 -0.1598534005619144 0.16733951852269088 0.4609009339256404 -0.48970833736004193 -0.08004619634142676 0.3523963259012699 -0.5706666108497428 -0.3501912011295117 0.2741722785690088 -0.2841790807091739 0.29505305915136537 -0.20744165841598441 -0.9100420818319064 -0.1039437512123236 0.266892284777154 0.4623467698266927 0.06867401481170649 0.40363739798695236 0.12183663374280886 -0.3999010421909333 -1.2029569444816737 -2.861538736311986 -0.6743940049711957 2.097492748464696 -4.191939476054873 -2.541365527920584 -0.28528819107017334 0.9213474987050828 -1.9327917222717703 -2.8949366140887367 -1.1469421766949495 -1.6419115832332332 -1.3951294637819491 -2.2102209849348426 2.1953063426492387 0.38078335045753847 0.491419318123026 8.359482035884701 1.1137719032926925 -0.4872283246995595 0.9306325071331961 -0.5672243971537014 -2.5295521823331497 0.6646403901047108 -4.394736103636111 -4.593393441283052 0.4506071799236815 1.344511494870186 1.8873676206962753 -0.44537200216081835 -1.3399985826281913 1.2353006901543842 -3.216487371747298 -1.20740398195806 -1.5483673088401293 1.3180013647485258 -1.3118400187266481 2.435439362995047 -2.049034723205798 7.230937148188785 -1.2515730980822646 -3.759047209061783 -1.6136735963475821 -3.8228950791440965 0.1895868130315137 -0.14962429922562856 -0.32589578674177894 -0.685502356017051 -0.9768978406337189 -5.000653901421257 1.5020966108713232 -0.20552693857294402 -0.002092333501074297 -0.7615317868317661 -4.4611421730197485 2.4080251095546394 -1.5111403852411482 -1.6085163191358842 3.9243301886505977 -0.48319797257620317 -1.0068720138865752 0.7537745583106611 -4.447820147757642 0.641270382871219 1.153245469253656 -0.9947703459568201 -2.4258448169400446 -2.151045394643516 -2.1051672189546844 1.594015946022986 3.7397927897286776 -0.9999659440763833 0.7994119562202494 -4.655541706998759 -2.00588110415776 -3.0599637689989203 -0.23824232494173259 -2.74452933830883 0.054491167736513225 -2.218239544118905 1.0892050188502742 -0.4317371823298931 -0.21868312613149846 0.9654074775916669 -0.5905455089028326 -0.5190655275607952 -1.758583581390379 -2.9645579027099638 -2.8687238819214866 -1.722978143042285 -3.528069315714583 -1.0451182155724932 4.08021181396044 1.7736582401743421 4.202428828115992 -0.15408947453544636 -3.5631433834971107 3.346448080987117 -6.975094525221454 -0.08359582643795486 1.4787245193809413 2.205999209809515 0.6828075456336324 -2.0533916585397307 -1.2375782586046034 0.6643385582750576 -1.454541733912541 4.062072258956674 3.1487497231512207 -2.9574073959054257 -0.38889596450329533 2.8625428003055107 -0.9626008441976417 0.5525887059000024 -0.01662260864906952 -4.9239321279188095 1.9426169612379878 0.26030657650345956 -0.1171888173888373 2.002214580234221 -1.5014614618795543 -0.6518859599237523 0.20649764650656294 -2.720624636516314 -0.48589640301541065 -0.5471752667089751 2.6782176011037198 3.829085404042434 -1.1944403462448554 -3.9187728815533296 0.53464618571354 -1.2745743397494202 -0.19414317071182585 -0.2680832423023562 1.2258779952822845 -10.238614790355392 0.21828526889005703 -0.702283545196802 -1.0452131232272448 -2.158485037300262 2.003217024714184 -1.8218097929577661 0.8774564277647265 3.2472054563112063 -1.011355688947904 -1.373776228051185 -0.4116913628340021 0.409951665031872 1.4510199984248306 0.1933837558638775 2.720551665695599 -4.4460992628400895 -3.1349515466518896 -7.3389154996133845 -0.06156765413152504 -1.1213550381204058 -4.456978011881981 -1.0052122858830084 0.09536718009717511 -0.3343330077663861 -1.2633463793682262 -0.07547408336440568 -0.05826099641521418 -1.8676838635519633 -0.34799145513738755 0.9540410427743469 -3.7813416828596718 0.525214332680689 -0.09589306195126754 -0.744023318236296 -3.425153942872837 0.9126307353447455 -0.13329653062387092 -5.122476498340359 6.013632312758138 -0.25498271778134357 -4.21776646768821 -0.15222828926243948 -0.16626389403162437 0.09177622679811041 0.17499334621175303 0.12931553856196834 0.24927610223075186 -0.5258241270256656 -0.7935859096300094 -0.3514151119300885 0.16152304280457377 -0.04748251212452894 -0.10488353880308388 -0.35937210000693354 -0.165771089701867 0.36431853243598794 0.05161330999583222 0.08751727429699077 0.2649138502987052 0.17518206074338555 -0.005980838179178687 0.05304378271815489 0.04682883846542286 0.2395459918799793 0.6452155679751772 0.40187205538981025 0.3852508388611509 -0.37173722534925574 -0.09007766358809612 -0.8217247315374931 -0.3844265893514623 -0.2700332061079664 0.34893192857025396 0.4972916226435491 0.05961536564971585 -0.3569691097330421 0.2304112381192267 0.013918682853153562 -0.3769975002770829 -0.36534575276682574 0.2476559291305098 0.13781267172751718 -0.0016966662666157743 0.03570901779208686 -0.24235412353684002 -0.3117352457205144 -0.0623546071683215 0.05174258305855845 -0.11351998207048367 -0.04139991156236203 -0.36042437711872155 -0.12230381386273764 0.08702541634163698 -0.13111901298436343 -0.239299393774327 0.2766360957896752 0.28241941796651326 -0.521440620188272 0.5555150115750299 -0.02284625566400053 0.4718608130432219 0.146646499130644 -0.4664417338001815 0.02762193657299192 -0.4658731898102593 0.20147674085776932 0.1193305548248969 -0.006477352545969107 0.10287195234092304 0.24762222907975998 0.2600545524429287 0.15764431989613883 0.2863056235083431 0.049313852968239785 0.18008558194337718 0.29490306040172665 0.21905232622267012 0.2952284341538115 -0.45951333667046135 1.2379324779809604 0.5641662381688854 0.23130520293918447 -0.28733652623842504 0.1577658781232046 0.02554649668432515 -0.3955153021859965 -0.20821845631247873 0.12800429633769128 0.3430102406010425 -0.38425509184397294 0.38280296925289264 0.04896344161166714 -0.4041522517404186 -0.549662316869391 0.07140207300300122 0.14495271123737266 -0.5041389719197283 -0.09311548787137473 0.39078811163538135 -0.453707116366082 0.26168471039384006 -0.07672300523115387 0.16230060631996157 -0.931943085422633 0.10361215157109965 0.5006681212155875 0.145679458269418 -0.3218540701942213 0.33488010253996486 -0.05965572179010319 0.4937436476868188 -0.07409843084201737 -0.21094331943161954 0.4181554421445029 0.36668522531732123 -0.4185741420854466 0.4289667775755898 0.4676574463353921 -0.48058594796116405 -0.25753055597464486 -0.5607974470999436 0.5289234906230389 1.1291667846480191 -0.178730379796259 -0.004494410079134343 0.41050494340318006 -0.2650481325941746 0.16970340404475134 -0.637648905737681 0.21581598019049822 -0.38498772648412594 -0.18053555990298442 -0.0015657292869213134 0.2058071187305221 -0.11369115696984926 0.9017233522302794 -0.10817159741150395 0.009275073157875817 0.7891087635956013 0.21325114992546834 -0.21266219191475022 0.0982237399961186 -0.6713185671267732 0.09427208211408088 0.26231254534149206 -0.12929350356641248 0.010097758828774454 0.32909257545335013 -0.4179037343662503 -0.47253378497046694 -0.525266303342127 -0.6656284657161549 -0.29920783702039916 0.5100603777650187 0.4798386382228262 0.5048762642552413 0.8431913228363379 -0.3785783765502651 -0.16216225180176455 0.11204345527266116 -0.2748778141407706 -0.4503045377658905 0.6740868833032566 -0.1011551277607408 -0.7239011237879244 0.06837868883856418 -0.24849298970186043 0.43169252489515003 -0.34356643296722195 0.4721286659221963 0.27007407140866085 -0.6641936033366475 0.41240645902712286 0.1900639684684983 0.1576254665009805 0.562262390207522 0.38824431015544686 0.5886233019007426 0.1725894565118329 -0.023797504093537925 0.26552183570184423 -0.5586438241325066 0.5461086972993269 0.0108545789087429 0.013571928394136009 0.38950886487523134 0.6212219089646687 0.010698633698079316 -0.285575959900929 0.6418296869539233 0.3568064401802021 0.43176998744093376 0.5975809786020817 -0.5868394640104926 -0.4911073371435184 -0.3975178535228127 -0.2886883463932029 -0.1397132145451915 0.8020542454598707 0.13818705624398367 0.09278451990716005 0.019259742308921343 -0.2535404197302204 -0.6804451774703627 -0.09068357898446847 -0.12435674224954804 0.11335500596046297 0.5493883892688576 0.39107059312404224 -0.6795248963620255 0.2584538225895455 -0.5915280389289371 -0.3989292886455047 0.01353793945230039 0.5521531267050026 -0.10713932040205405 -0.8693362732866465 -0.384114807495252 -0.2753350094145974 -0.47134712501006126 -0.950247389114402 -0.1391425478550414 0.03827489666711327 -0.4435493592289111 0.6515554304126236 -0.007435336421037823 0.31468983334921574 0.6003083501033837 -0.6787318155305113 0.2929301741614765 0.5811582742561662 0.4457685616867949 -0.4453176230063671 -0.14878785715516563 -0.20783851717593949 0.4811352271662903 0.3573028492258283 -0.32791633368322304 0.8307498533220826 -0.1555835910212469 -0.08841529846733284 -0.06214782874909233 0.7441548590713362 0.08654545304417094 -0.21894505910097797 0.3810197097039346 0.31553865523249014 0.16447895939715995 -0.23517112152549552 0.21732596357282746 -0.7242917590433046 0.3260546452306346 0.7134085967511151 -0.13120310133871055 0.479866216834481 -0.4963623848079122 -0.6747806718898574 0.2159919104937539 -0.19350486361124805 0.46480660484960223 0.09636177069124967 -0.27722359119822293 -0.43051786343139736 -0.3705925505655743 -0.04237639693337432 -0.4580393602304824 0.0161839203593336 -0.5069798214694948 0.6224113581238185 -0.2979715432628743 0.4491142052339512 0.38077096601753674 -0.08093064834003708 -0.008111265326246392 -0.6978333726142547 -0.2666072237962899 -0.47866837824274616 0.1278152547962627 -0.19030520036004547 0.551779206332974 -0.005687523360186811 -0.35716264366245326 -0.12040690798836823 0.31973794236522446 -0.03293379484236415 0.6534211114639563 0.19180491443308215 -0.53673961949494 0.7240924812923237 0.20177118061025687 -0.23249411298541897 0.21385304129232605 -0.12749682417149594 0.5447223060748226 -0.2781942015516581 -0.14184972317134664 0.5218536006629575 -0.34376848476311683 -1.0086592779562789 0.03485948072464418 -0.16212781900101053 -0.6489887517030113 -0.06442714453222725 0.3050633561750162 0.2713472699944351 0.2299624633622935 0.05766083367524703 -0.2594388871656688 -0.048763159656006916 -0.49295945773511396 0.10339833995177398 0.5171428575687529 0.14295577977603344 0.6240425692285871 0.4385337626248977 -0.15482364524883288 0.6156588488669005 -0.048277787235254666 -0.5333917883101439 -0.5987211564746509 -0.6777741276628643 -0.21842086908684927 -0.23888142528666645 -0.21823512456961264 0.1676604833986018 -0.6955113575255605 0.3413060940811524 -0.45826396775904354 -0.5932505522996991 0.5105520973477459 0.5204993996161047 0.32051220874620195 0.10063416416475658 -0.028959882583346103 0.8590469135039833 -0.17143403231069726 -0.3300293265650147 0.1052263298793236 0.17890490943893816 0.009026602611006513 0.3035692338605768 0.3293658888786819 -0.2980918483444199 0.3250208525682353 0.6495464069805955 0.24996083563908855 0.11469122626787016 -0.6525877090285328 0.046241531351925394 0.6910882804124271 0.744687059458054 0.0898831610549279 0.46500533390036136 0.42488722223212233 -0.22058435751987862 -0.31559339804136893 -0.1389250206131556 0.6768752205825896 -0.015025716819142767 -0.21850326966516295 0.3780026976295189 0.31735821703240663 -0.150342235171528 0.4671962237066869 0.21809614374608216 0.13936513942360015 -0.4943805713108017 0.2772392193753237 -0.2263122672152062 -0.44221628614472536 0.09080583020502 -0.5057513630370324 -0.048424677116657606 0.03802267355412222 0.21100676415456 0.2976569262272325 0.00931203006178465 -0.43758488879972735 -0.41403254449118565 0.4825832792372012 -0.616431497399805 -0.7033726926720981 -0.20517793856218813 -0.42316081656641774 0.3288210963872406 -0.14074614314546388 -0.43536906996757896 -0.43976193453227425 -0.02560515058510648 -0.29560081829463086 0.04135804543746522 -0.2009762468013351 0.25002319844627224 0.47566582775853894 -0.17995744514129808 0.22103817959904268 0.23528734810492616 0.10445250717546009 0.8081642050685507 -0.40376894784358386 0.4383193672362961 -0.4837684485107731 0.37704695808658684 -0.49803843342082565 0.3195636023294028 -0.03201848456546031 0.45021495852148086 -0.0377491931714838 -0.0070663542693332896 -0.2806140424252438 -0.03328740858482242 0.6907359295211547 0.3914637660841036 -0.024393935052382073 0.2596872801282758 -1.8522602394798555 0.6043817668050158 -0.5239891568279224 1.4272650945757874 -1.8996762661396802 -0.5009295155773438 0.2695086651652903 -1.3310650762836318 -1.720506850207633 -0.023786632497601455 -0.9761809387569386 1.166507211362382 -0.10396229526686895 4.80740206832358 0.621094072091681 -0.6674702059907016 1.005486885423798 4.387480910807075 0.30702560488376696 1.4417640382518955 1.9451121285114361 -0.8394324364866601 -0.7155833484608476 -2.3373231592632195 -1.1051863420179941 -0.31809113026625335 0.06471624285193757 -1.514817597841942 -4.78133608862345 -1.065383235824349 -2.10547200364076 -1.1902837801956254 -1.533786333119279 -1.6917407355367708 1.5699541785193327 1.7575621244245936 0.12522804591395612 0.03782194149448258 -2.985989357541406 -0.5789983996524746 -4.225051050296061 -2.494405802103022 -5.0363785111855615 -0.13062929606833104 1.5373002197908392 1.4825574027505237 0.753609495147309 -1.0325525817041032 -2.087199202694312 0.3039595175850202 -0.939501545242001 -1.7980332873482583 -1.5451145669585444 -2.25103280309829 -4.067102028125312 -0.9148446735562905 -0.26266027691715305 -0.8054245803711084 -1.5203122712201071 0.5696936039672006 -0.6972782005298618 1.4138091023523087 -1.8325687480282842 -1.5838999216243543 0.26419470049044713 -0.79865123848964 0.8232682698953689 0.47625259301191974 -0.6285736433276998 -0.9332935867444644 -1.5066778134200718 -0.5430323850553338 -2.3923932195054762 -0.10410945539717115 0.3137008861864013 0.6774670255815238 -3.5889904830177644 -0.6958223380440042 -1.8923978375528434 -1.213084356410741 -1.2036524531431714 -1.5064067266554872 -0.043012153942172206 0.9101564015211735 -0.6993291581297049 -0.24743602002905624 2.758790469152152 1.783955557206841 -0.4260799163646425 1.3389301211298146 0.5107574404257108 -0.7326073993757428 0.5940850738199505 -1.5545398018175267 -1.5169051224583856 1.9859224532416917 0.7540020247410263 5.170627893817685 -0.6151920938652904 0.7352324379480704 -1.6533002013003422 1.4777300279550745 1.9732025664665225 -1.946224988434395 -0.24063399136744884 -1.2099297235914932 -1.987942995600112 -0.45342655077882293 0.45444637293934637 1.8875189217107333 -0.06266170439951743 -0.08913912783368347 -0.7573195499551318 1.2731394052257616 -1.1507678613509131 -0.49410144364295405 0.42029406991787044 0.4639568491921667 -0.1374007705169784 0.05077810959625009 0.5102455675850852 -2.682045739540538 0.2944770599447051 -0.24119399142859407 -0.0563864287363694 0.13778822381153813 -0.584803799526273 -0.2647403546100642 0.6857394986816817 -0.0015251208308658768 -1.0821694819795282 -0.8702949860833444 -0.38516510801684173 0.47973136902673574 -0.7132500373314071 -0.08182973018844367 -0.5054609611176175 0.40372224911304566 -0.7804373775717719 -0.3863813667741862 -0.173784167516229 0.4398551961424423 -0.8304274891435239 0.046388233182183776 -0.7338093920686619 -0.192650628213426 1.4177370482832319 0.15453926317900735 -0.38215022386232395 -0.4530499117963766 -0.10261190342948712 -1.0435079150895405 0.1609003157183647 0.23908579802973573 0.2349635672000879 -1.4567182034419361 0.45953642626903346 -0.023567090983378017 -0.1516876665608942 0.6606351484749812 0.10201109427714898 -0.3466388959924778 -0.10443688104789633 -0.2065266455271421 -0.5880983374801267 1.1805351770797674 -0.04185834476900157 0.2561075520816659 0.2967823871375374 0.45735020748035604 0.18133787936524284 -0.6513176569180562 0.06019560846459613 0.025912358479574682 0.6405650897851994 -0.9890611932956277 -0.691212939146301 0.6101369669008363 0.2399459032619429 -0.44827337118872423 -0.2792349089858718 0.18122821450855084 -0.0450332252828326 0.23013576283992138 0.04462901269525776 -0.004231685504710224 -0.03832666250877313 0.41100476432558675 0.9436155409949687 0.6470786884674693 0.4923993396920459 0.4616995529906523 0.028731906354133887 -0.7116423516223391 0.18794428334735427 0.6315989928920321 -0.00811151621443738 -0.4295143365842483 -0.3003337040951778 -0.41434373281642883 0.26763010099010104 0.26688920282970946 0.5152946127648209 -0.7485609106047811 -0.25169008954986405 0.3900827911714237 -0.6957112625797992 0.5489856529332038 -0.03713883067642985 0.5188871262689309 -0.04188347350123321 0.029449238351542957 0.6467810757745145 0.5297385304274941 -0.5494769517724912 0.19255347726040162 0.7865655110932398 0.1920894734358776 -0.13775955408349727 -0.7499909051902721 -0.05627129293265727 -0.7572605357253368 -0.06304479972988661 -0.4011039544749827 -0.28409860755315197 0.16603865252831085 0.8733796890160204 0.30701987383481544 0.7401570075819529 0.30411817445620304 -0.003735544697339381 -0.011952993460547616 -0.6518610853379992 -0.12195127039466856 0.14019874004894103 -0.013696462557505038 -0.6879549510962003 -0.2584175939062611 -0.3095880527137879 -0.15760901146267847 0.7709475481821128 0.0392101215066136 -0.1431871011097991 -0.25059146763591544 0.28005226384631143 -0.4282332478585668 0.019791838043458496 -0.17881712177835024 0.07324004004776354 0.542761330228195 0.08028902272514873 -0.4357137010235739 0.2982173263343745 -0.190754840273794 -0.6948263125587922 0.16760871745054676 0.3638214069881566 0.02882628310791026 0.05074656316450545 0.23069661371995065 0.4152997034547389 -0.2206720205709005 0.00966595216461048 -0.2592081829236185 0.416226689552883 -0.1088056210047103 -0.3562829158845357 -0.014594132012487557 0.0716563018363731 -0.104592959514596 -0.2295410093847369 -0.0659943942066273 -0.5622460471572827 -0.6775939947485289 0.10844302189664456 -0.2766264301956866 0.10144782647556451 0.6953195071699221 -0.055843905204609544 -0.5866199920116567 -0.36250494816374557 -0.7245246136786809 0.6439449913490071 -0.11140602068872894 -0.0315212547646628 -0.26423699602202444 -0.05452912559811049 0.47376925093713246 -0.20607332890699834 0.49154397996007965 0.27356588658456654 0.5313495383219574 -0.08550683691190267 0.4280304825432256 0.46518119201090485 0.34463638686821346 -0.11611112612938683 -0.11249187738524856 0.34138717496431376 0.5003536746248374 0.418937602289169 -0.006803762508545024 -0.21802343865385113 0.20322326354922507 0.05451282163036086 0.3841931968685457 0.15383682316223676 -0.04817857592714 0.3817824828618111 0.05737993222219191 -0.02000812435703022 -0.19523472919900522 -0.7826422980416488 0.2291089733811367 0.7715724752915142 0.07472269964544434 -0.016570461583863254 0.2638400778463453 0.665349282750214 -0.46004214402335414 -0.34569994305713425 -0.15205259605787097 0.5211445698159551 -0.6398643952766078 -0.0985467437460782 0.11617103748226698 0.6466495765476954 0.16367626595683582 0.06779146772281824 -0.0693780832200582 -0.20959302076197234 -0.7870044047827456 -0.22941719821505901 -0.06733826501969177 0.684818295969114 -0.015387686784182055 0.010536704144807934 -0.3313012267719891 0.26562436937482564 -0.02419787183813785 -0.6467612284366574 0.5894912340260268 0.5081054528287926 0.2657512419190474 -0.17359284220717255 0.007545593771051166 0.15257019638539232 -0.049302128816170625 0.2682806918630175 -0.07074386937460936 0.4519593401190036 -0.15598373102260196 0.8249707719111689 -0.28151479825886655 -0.3684925581923723 0.02209525687526581 -0.15929910123061455 0.1440360047567858 -0.3571363908956967 0.5184052314069635 0.1818718492116141 0.2170361039717733 -0.2652838859640828 -0.6020505636911513 -0.018498046849587474 0.22855030093775808 -0.24614264409454734 -0.47597060335688024 -0.26869500986990846 -0.08565400634545638 -0.2768817424616527 0.17329213273701352 1.0134087975666402 0.17377165251590468 0.5014247926089792 0.5822792700549554 0.8421585338917363 -0.2198906372735823 0.0076269357666056675 0.5618558756430105 -0.3309855538409726 -0.46678502606663713 -0.26989176896029976 -0.021035203651240134 0.25686706875545473 -0.1449311305500164 -0.373321058865728 0.05961891785535964 0.13542542129502178 0.14948684025787787 -0.5108160438013366 -0.7694369303017926 -0.4082363168605811 -0.4299939184252263 0.23926140769251622 0.21989311108756188 -0.3311403932221586 0.16745326981077252 0.006670004894549712 0.10119909648679001 -0.3721414803879357 0.185482073898814 -0.06988505196639998 -0.23182998322709572 -0.2778674010688793 -0.9440312143591472 0.4373695110387286 0.7542030781791031 0.3008425966025841 -0.03573051349663641 -0.030853396824886598 0.2217882967971827 0.46865819189782026 -0.10685853144037753 0.07388986833940021 0.2027872443643547 -0.4701106127041927 -0.19852732587566876 -0.3748420304663872 -0.21243333863352387 0.41619149134769057 -0.4689212425852402 0.5395634514360216 0.6686374498811277 -0.12185254286309453 -0.3215565954976933 0.26051799269608833 0.24411047192216975 -0.7077800730931145 -0.1567821759671032 -0.15645454475065748 -0.029792751470761835 -0.5350397590735761 -0.127861369090123 0.011072129195584812 -0.0723257217363641 0.703236275073188 -0.11988756926380678 0.003108664690691336 -0.6567552997755887 0.304254528442215 0.28284571801407266 -0.5132620299829549 -0.1848746423855615 -0.10793099686803356 0.7205171026249707 -0.5007045075835559 0.5679816186285885 -0.1418084078402672 0.04855970744737454 -0.11129434475179634 -0.1309635852602889 -0.26872711907081437 -0.1767686444683814 -0.0778055029087279 -0.289163048478456 -0.12367836869737928 0.13880249346918075 -0.563511050812662 -0.39210665456871097 0.21627045851188864 -0.29828382583279917 0.4598386825976848 0.04481395580117057 -0.430869251460495 0.16077305114580392 -0.2188786797972732 -0.4580455846848753 -0.0011016417894929944 -0.298186362849491 0.7648973832737056 -0.12943476273212634 0.5118190770905978 -0.630565647934756 0.04226884856961132 0.012174167836664074 -0.6570353255325432 -0.035724826357443375 0.034135767860851846 0.2685873889284368 0.44839806585468034 -0.08803486890143608 0.1961463331818042 -0.2491303542820727 0.11514422085363947 0.0701357816511017 0.5096342507222901 0.060291160282382024 -0.5052463334306855 0.29859382150825436 -0.19834164419067576 -0.17771469712172377 0.0037853202952433276 -0.29466981981021856 -0.09231176386173735 0.2320498584036626 -0.14958591896051981 -0.10477153652114768 0.478374954324023 -0.05917661985849636 -0.016993258686682205 -0.21179326124045614 0.006412499031270179 0.07377413591896334 -0.2755735336933019 -0.21116448628353543 0.145123664912888 -0.5262273056663342 0.267336529197176 -0.23639813471100482 -0.46080547769366925 -0.2564667232175505 0.18355483967811206 -0.7079797857860106 0.13822556717405124 0.02973852113203467 0.03412890244153511 -0.2512556271177645 0.4994493134196958 -0.398377200111413 -0.2324280612618687 0.8672707421871768 0.4307866328116759 -0.12406864347752646 -0.054972551535437966 0.5610112218146265 0.05545275611878722 -0.26020865755120254 -0.33354781128153144 -0.004190019520275839 0.24230392416455235 -0.196209659841427 -0.4612061246439707 -3.2127474355735606 -0.3332957777031566 0.9141693509512203 -0.6486656650523085 -2.126068451861997 -0.45497002727584557 0.30391098481000073 -0.14026071102141177 -1.599725672023686 -0.734681582260543 -0.30260721527544054 -3.0103960626692037 -2.7979907727287117 -1.7578868466174187 -3.1314544115555654 -2.2230844268555923 -1.9686647821715204 -1.755436600997506 -0.96667467641099 1.420127301703142 -0.8716021571657463 0.5018735832326211 0.9597796591201092 0.2684256931921976 -1.5647327437479575 -2.1956301861706327 -0.04364499017074661 -1.020402302454017 0.11366480841449535 -0.9216806782919068 -0.5472997908986967 0.20215972252327544 -2.612681651954432 -1.019008135160155 -4.293172752456356 -0.6042349719547729 -3.1424326072354045 -0.6188209048826108 1.1158870901066222 1.7189605357855928 0.913756982175822 -2.435203096551039 -2.3061585701566236 -1.2720381326103098 -0.36540596225382865 -1.1849971674715531 1.0331477777269729 -3.5948282193822463 -2.597020115086731 2.070910600217641 -0.7649589957487278 -0.025401377634125793 -0.26249175433699445 0.2605553244745042 1.3708831924611036 0.49471039027251906 -0.7333583411462689 -2.136401931126498 0.18760187025603364 -1.0118150151064167 0.9961411246872399 -2.2285399415541773 -0.473077312811496 0.48657155229926524 -1.169194935856541 -1.5757795237702075 -0.5538308441531332 -0.4726931321631901 1.5636127624640657 -0.36751833355727154 4.4565856874120255 1.8929716623193564 -0.20056372193066127 0.24924479537887312 4.366015613579177 0.05691895904595618 1.2200037003466058 1.9941182249381955 -0.8422351736886764 -1.0417065099147458 -2.559352443746294 -0.8085141017421709 0.4048966326923804 0.13544505659276024 -1.4772651925898241 -5.053068094112189 -0.722941387121271 -1.9576580697169417 -1.5415226985081918 -0.9505411208506378 -2.0140511062499495 1.9698068963986954 1.870797565861453 -0.1544376247780511 -0.7364566249665709 -3.41686057318142 -1.369138400161611 -4.555236538561896 -3.0918096075256547 -5.378904585769588 0.18360432451951314 1.481509447093971 0.7987411912999195 -0.5761088768629324 -0.6540150277757766 -2.1595796903322055 0.34568217277196284 -1.0951714115057276 -2.5639067836665825 -1.333203119835534 -2.490748124129507 -3.9466898347832196 -0.3328918180094196 -1.4899476345257168 -0.913505392924518 -1.3655207440023875 0.6305940855345257 0.6873039197300841 0.05233133348623959 0.6014530782876002 0.9377938429883608 -0.49800606117973895 -1.5434889167697032 0.4766993426714656 0.541374737282283 -0.3250829250580776 -0.05059693780710962 -0.9687293624330229 4.873167582825073 -3.3293682413950294 -0.5386694590825604 -0.711305055697458 -0.49333732403825475 -2.9965850707440946 -0.17334089996701774 -2.017311093654211 0.17957356880755004 -0.8053793704257927 -0.31931849876643814 -2.0032720865123768 -0.19914250085748364 -0.9791878913140355 -1.3274864675857296 0.47048016829222944 0.6433839796423608 -0.420165169046906 0.15601819921930782 -0.40850685903420053 -0.1011654153312612 2.0992133139725353 -0.15561739243244171 -1.0645283896772049 -0.45818518492631594 3.2652942664807236 1.2262610916766101 0.06286209795635846 2.3069877927897946 1.4990527219873426 2.6458955577365955 0.1895903945035973 -0.48466211436070517 1.4958725770779118 -0.3343637180145404 -1.1437432280934887 -0.37398687666392577 -1.1912036501064245 1.1590732158321144 -5.172554458107563 -0.21929981844506305 -0.6385300149030158 -4.702587809884717 -0.4130260301379965 0.05270279073929801 1.8285347395774167 0.7819545177312814 -0.4358368885021414 -1.785867617550936 -0.33234755119782833 -4.645002834616595 -1.4732484591724517 0.05468031292335835 0.282086835660693 -0.6833243056435464 0.6635118522217667 0.0026649676190823994 -1.1045355254669476 -0.2878981931042432 -5.201594824678318 -0.48799217894570973 -0.4075607740696673 0.6776163440375865 -1.4814378220894269 -1.0358512298973654 -1.2962390250631006 0.10610376835270387 -2.9922018339627576 0.5226885806792615 -0.5787124686702125 3.4434813283842045 0.04695034543962001 0.23131641913634832 -1.1014155774718148 -0.06926765574844934 1.8279077474230063 0.8177479226401478 -0.18031771755588388 -0.9924722787714223 -0.15345642140072277 -2.5487864197301184 -2.043627341124889 0.43378919680373984 -0.00029644322860005503 -2.9203981804784336 0.501065408603945 -0.0020424984190403825 -1.130785092624011 -0.4545652625776482 -0.029746185097856575 -1.6324457508567587 -1.1627966633665618 -1.9431266885365888 -0.011328270683862197 -0.019741429266098034 3.1221339308449187 -1.2291487487757073 -0.6149987552119196 10.158511162712816 -0.19431633334694984 -0.8064588238461532 10.077458445803154 0.8866333035231119 -0.4658710322221088 -1.6171623691560317 -0.6056505325903637 0.14667689836641337 0.02235749152462251 -0.10388616181298625 -0.31385402296307746 -0.3595027264425301 -0.24569532785626486 0.5061416666147988 0.3662838736518604 0.08774253112252671 -0.22720173850117056 0.26583398307146894 0.2951911902674726 -0.2854993740222388 -0.7180936397381794 -0.16736895767618964 0.24118387016221218 1.2971886252413043 -0.08249685995357726 0.07669051811376057 -0.3637935135970355 0.10818406983173814 -0.446785458868366 -0.34590278890372916 0.15887812861585207 -0.2796554721539059 0.32772902964481737 -0.4638027197704357 -0.05155654215578739 0.06567637452580022 -0.4106113086423514 -0.7678011253769468 -0.33507215011910046 0.5110062964602593 -0.5682208476349999 0.4450099921989147 0.3845036799404667 -0.029239399764250166 -0.40985920829460887 0.2962303869088662 -0.935522601049907 0.40368800293779883 -0.6329611867638606 0.5257772287387068 0.1399789215112014 -0.1272295870880845 -0.6464208260723713 0.8036949174288835 -0.062247516023514936 -0.2114773743512091 0.7034695507535839 0.07979791262571054 0.13685562801073053 -0.3633136596003491 -0.5886645190269454 -0.24127451077294296 0.014057977392429845 0.06128474656459811 -0.685418065592974 0.8990564608332141 -0.21520270488526091 0.26905026387405273 -0.05951579247047975 0.06042370103573254 0.22437939668729323 -0.6268454990582223 -0.23148070760839518 -0.7410606667053847 0.2236206696533992 0.2439850247169969 0.28059417760317473 -0.025543515476380632 -0.10808036934532601 0.6580022691434885 0.5027525720932855 0.18102719152773028 0.004247152795140707 0.42689639150751874 -0.23581789755092344 -0.026307582180821357 -0.5334655358131081 -0.03257233801848494 -0.2752569845245433 0.012463320302152414 0.29631937434274985 -0.1253077189450016 0.08623909690299159 0.6934052834147607 0.3319531226359307 -0.40640711943289426 -0.09929076860784217 0.009650894743316776 -0.09927230478335636 0.4679667432986871 0.05431068777703916 -0.7159297594706985 -0.009939553183164543 -0.08148536966515543 0.3940868952687723 -0.1257560975072608 0.4071301174078798 0.5369770611959187 0.069902148244644 0.366325755345171 0.3526422254463548 0.17445183462848454 0.32177039585846756 0.2901561948523735 -0.4854398005590186 0.18800016775851924 -0.6405986365024697 0.46585203804036157 0.009994166907437454 1.2013601248827916 -0.31638687821902695 0.4338328654893729 0.21395750551225898 -0.13880139548920795 -0.2552963820730909 0.7671498779737802 0.6070403604925014 0.17421381766008132 0.268876190239243 -0.052327193760761365 -0.03027509285064955 -0.4196912585473846 0.3075729889905817 0.047456236711234646 -0.2727093670788314 -0.03771455607947926 0.09817561732666935 -0.6120750250524776 -0.1202105824652755 0.41913651020014714 0.08882025649217169 0.3955910832494579 -0.5317637267976315 -0.30456535233383697 -0.5254923916304675 -0.38078562314877384 -0.22427397719614806 -0.08391393332474678 0.32677336470496515 0.22133746824956171 -0.017004030552040972 -0.1207987987255619 0.31491166666489434 0.4315365148398602 0.4459390879354924 0.23161796187130834 0.09516618698509685 -0.2334014800296283 -0.09872771265046407 0.2607741524594406 -0.14340474151776275 0.008804121473821454 0.34039510921996174 -0.3630758198521082 0.31873931594955945 -0.17442122694544204 -0.09550200287596819 -0.13968770540398967 -0.7832644877219325 0.41505675027421585 0.017483059000335713 0.25817018996851226 0.6960018901387569 0.6963776363356431 0.18560143232481655 0.11154382313331103 -0.17088431997269027 0.19919837275001998 0.7735005300365547 -0.6435322629676798 -0.31806470537801507 -0.06123512471320582 0.5601451044366657 -0.24156991358494967 0.004208353530505441 -0.4285538495764187 0.3780070540008598 0.7559228091593144 0.6320049836076239 0.22075090628345664 -0.11627638722895837 0.39553078655080337 -0.10988112332297638 -0.1627696694634075 -0.3599355315093462 -0.4749636923245121 0.3874384028654551 0.34636058411738024 -0.3436944148178236 -0.2501002504518275 -0.0871263295940153 0.580197585226636 -0.14640342341550092 0.032435076955183315 0.10961725873062303 0.31738995745397686 -0.5927158499380254 -0.2808283846829305 0.09512157790365798 0.04425137527421151 0.08742270430325905 0.21728101105742623 0.11390242092846033 -0.06297257028378891 0.2548653234156561 0.2657567603814541 0.0390781577020706 -0.061816238171978774 -0.347775546334638 -0.056642819500237036 0.6481087051955239 -0.07118201931858978 0.14397783383342447 0.3430115136800409 -0.297576148821878 -0.378538996758828 -0.046401096757966456 -0.2699887712589268 0.130342424138531 -0.7504355782362171 -0.5310589513468902 0.5798195323582058 -0.2654080953303434 -0.15517761689580828 -0.1582984069729213 0.013972056662144171 0.29911478634543764 -0.32863388383996006 -0.492602389212832 -0.10404302271203335 0.16150089846997334 -0.5303579962859574 0.37757778489908395 -0.13288771154099702 0.44077510985336793 0.8601711666311851 0.45926259114714263 0.30567759500749303 -0.10281232747079169 -0.2990549671738573 -0.14937068902734818 0.4465007863168038 -0.1742038098944789 -0.1434741753031108 0.3781133904808837 0.07609099497521063 -0.3173581897009656 -0.21162123519210643 0.28607731004540443 0.3064325812728434 0.6828809101892764 0.610581743143786 -0.2998999355559685 0.36394150510756207 -0.7956416723664914 0.6094179996969529 0.25252967064704834 0.2778096553834744 -0.4421466510366093 -0.7120695678977298 -0.3512034247545625 -0.11860112862625015 0.00768705922959739 0.8970856800885286 0.01152132946661298 0.18162069813131607 0.39845917988183704 -0.31320140893567927 0.734381192515415 -0.0520225835015256 -0.4612072992701081 0.46314340983473207 1.0855085802159463 0.5986899535251946 -0.14629841125628734 0.5078535670482688 -0.3597246627766892 -0.2480057753495082 0.5196062848032106 -0.22035489609421724 -0.419351101620455 1.113163201775009 -0.02101146200038321 -0.06287394889384171 -0.5159428714645655 -0.08975353560308633 0.3413586021043 0.10967783484465389 -0.4485657824267795 -0.06638395624205093 -0.6484812895102341 0.39241605701187066 -0.027192394940339388 -0.49560167645422193 0.5949073893798417 0.4658185391904589 -0.5122115068594563 0.31644778947504737 0.5119610775735769 -0.30824508854126326 -0.5795315379018237 0.09503352375300578 0.2090793334684936 -0.3464962135699443 0.16661369767479553 -0.6363600953460234 0.47458815061097276 0.16616450387686493 -0.2279093110616671 -0.24727569743587163 0.08404430042391096 -0.22732156570758083 -0.03557511609582913 0.24250172911317705 0.6607562615333148 -0.09904261990265957 -0.3276184620665306 0.5567245321983082 0.44210003684013294 0.08567785929104942 0.5321519917111158 -1.0085025109812977 -0.09040532060981893 0.5305734694861097 0.22490010866865282 0.2797503378616291 -0.38663659212279167 -0.0717983952584803 -0.3154840828403337 0.20429124492880935 -0.612532020235918 0.3923327975541055 -0.06020755464757681 0.2791491252583057 -0.01149709919207421 -0.46164233553267797 0.4055836255326157 -0.03983973979604229 -0.22064081142278183 -0.0009642412186961204 -0.9992204153948008 -0.4009176090169025 -0.07922397804683691 -0.25058954814284046 0.7802258058068903 0.07238371062927762 -0.1905736196364771 -0.045956742712488265 -0.6971982455696244 -0.23618161795921325 -0.90117894576343 0.25360812859225396 -1.0190867521301514 -0.7065675490367174 -0.2920683439340938 -1.656861755863612 0.17629248670463935 -1.386469823878452 -0.1570864925715024 -1.5385773951913202 -0.008333035590035814 0.02888130729755242 -1.2927025861313513 -0.6894196132785555 -3.1326940803319268 -0.9206113209996252 -0.6444821508926224 -0.45039401676056273 -2.493559566584342 -0.5088742766482236 -1.1833668510164628 -0.2409588882872893 -0.7379178665998655 0.032106973143648965 -0.21265033275279457 0.09945534942704072 -0.7066495969094487 -0.05129059413482872 -0.14349704842757974 0.5884234557248138 -0.8140849352557257 0.6860722590090632 0.693669683797129 -0.6874040747931176 0.6713051023400852 -1.1571077402356196 -1.9139421603024245 -0.8868326817452034 -1.5272098796596318 1.058787511031694 -1.233414984311311 0.8162011774381338 -1.4388360567154748 0.6535697412278324 0.4025618631946975 -3.620568405574095 -0.49297305263512087 -1.2655958672773953 0.09259600720483244 -1.5287568161817628 -0.8379399497120928 -1.0137950909852933 -3.2631837910438306 0.5131775932859183 -0.45868672354857865 -5.205320915381127 -0.32065079373616884 1.345029030584235 0.03986821049175959 -1.662942347634997 -2.4621579661482844 3.1212025408520043 -3.1494700401581435 -0.5037597412908111 2.305452332100984 -1.9091163566069433 3.849206923366282 1.4462571149174162 0.359730929016967 -1.1851552813134585 -2.426640477094377 2.230695552507048 -1.9798233747069351 -1.7546981435688074 -4.793661800651381 2.9513906397303673 5.664639662888324 -2.9701330479541017 6.047099705988294 1.5620887707868552 -2.100009042190285 1.8102550221578466 -4.222042910248885 -0.16671300358445493 -1.514010593656518 1.6133308899956293 1.5006580543181889 -1.348197609077832 -2.276258368202485 -3.7344156034615903 0.0004957772872102921 5.402524885057256 0.009450249431399022 -2.0068377320103967 -0.004507321059191453 -3.8731015041825794 2.0533781706336773 -2.0487592421434 -3.4650638999358017 2.4481723118010867 1.178393799663745 2.905517406056741 -1.5101706717745047 2.4135502872497145 -3.9064518169678006 1.9791920793966962 0.6687929220630332 1.3207071241410946 0.6585771246168538 0.44201198139325343 -1.269672827257776 -1.457783878005188 -2.9718064414494747 2.3254198356037685 -3.5483545571806463 0.5928957927173 -0.22675894692102394 -2.1332362020194617 -0.4305814790110112 -1.2518132275307705 0.7634260407682146 -6.384447098692032 -2.1153823439800092 -4.366450311666421 -4.792458898626569 -5.839884606745117 -3.687980781598221 -1.5983678706368505 -1.5370721266499803 1.310666318986919 -0.855425571269862 -1.7167471485650987 -3.7141830858026386 1.0900045083577652 -2.6426664034017358 -6.591176830022856 3.0899912189815537 -7.15150479789832 0.6571985507428124 0.725859514562609 1.8498987297131242 2.31938041706706 0.309854307437364 -0.25598181668798975 -1.354622083151216 -2.114382652158385 -0.2654762468342394 -1.250288727727464 3.755766224491536 -1.4426460851660596 -5.19042143061635 -1.737763967997658 -0.263892408483063 0.5835789666434691 0.7347932730537475 -2.8698902542374527 0.2368269577293765 2.1170223128363004 -4.147092124307758 -3.653183214442904 -4.513898659271623 -0.1603961504769789 -0.42898499017366715 -3.602423047104198 0.03576547401484551 -0.3280526090650311 -1.988170760585468 -0.9880265783176196 -2.9791898829225554 -0.02418660213567767 -0.5122629218294749 -3.4349453702016577 -4.849463314444823 -0.7680178389966629 -0.25388243703425756 1.0480540541901604 1.037680461523372 1.1020692814025332 1.1859587857218066 -5.6338670221517395 6.765356066872485 -0.17788557383065653 -2.1435802891625055 6.15903638770946 -0.3987073329122493 0.886817300041915 -0.6480717025472579 1.7232328664879044 -1.5255056898169985 -2.412775938920259 1.311524284208458 3.395072217548276 2.1612784269240004 -0.09986407467189466 -2.364117632752874 -2.070173534725782 -0.7444383042580514 -3.244130912755424 -0.2917928771452678 -4.908347665119821 0.15147820310315938 -3.0403495049382436 0.41427497390308327 -1.5903147420102361 -1.3467476833387058 -0.11248192858698394 -0.04084841410073216 -0.7608405510410706 0.19010319667434156 -0.8685488292427487 -1.054759283224019 -0.3846233542801652 -3.240648553920838 2.457154038729448 -1.6769777179721368 -0.5934494575378898 -0.053707228144639865 -0.6238933692904317 -0.16263905206335094 -0.5181871246099716 -1.0601779099362894 -4.020893088000758 5.485284284082357 -1.5804177681702993 -1.4363079519781399 -0.15487023856572862 -0.003315246195510597 -0.8492295091411579 -0.3705812394593342 1.600540005677831 5.30721833814217 -0.7638901803371322 1.217503811544916 -0.8047005125409232 -0.29944389148157796 -0.9543467373746853 0.141362635499028 0.40510047091778406 -0.09383988480240521 -0.3275379044081058 -0.3749028244262791 -0.08127982573341481 -0.3369659312500936 0.3547549613750818 0.06888146569368722 0.14441003185717421 -0.4775169423060238 0.2151168648791119 -0.33794095466490404 -0.3176612988156734 -0.6404801698773779 -0.14443189315801194 -0.2190803841943743 -0.3396738123311235 0.4959473767626 -0.017607315942963723 -0.7970115527919579 0.4430335101322129 -0.0391303932172743 -0.21400027626419277 -0.16460552149450733 0.38466257094337475 0.7560770281926557 0.09550128775828857 -0.0807088989579328 -0.46548480424617883 -0.25522327621835 -0.27593589455405243 -0.2550018664914039 -0.28081710697353535 0.5945810979551559 0.18295488610110516 0.19916471005619396 0.2484604089304504 0.6877169934393215 -0.02625785127669764 -0.2949358102062519 -0.12213952897362021 -0.5044622716068137 0.006275334398861567 -0.01940038577596795 0.009040031535233748 -0.16464505184847983 -0.3677310865019952 -0.2705392075210632 0.40640470955122526 -0.6586690916361734 0.005968870443007684 -0.14283026413695055 0.21032938139628835 0.4033713925493836 -0.15641812515941858 0.030593318802368874 -0.7964258415470142 0.3951247604209663 0.37269383073331513 -0.5108206794705974 -0.07822839436450943 0.2716067278337211 0.20883028304860093 -0.4169345109764184 -0.05331106692841722 0.9400977512465891 -0.4571288632945833 -0.075537654326144 -0.46429636841709043 -0.4543155616234188 -0.13633419844025407 0.12270417558974726 0.6605247977233535 -0.002985699866146178 -0.08227310342451195 -0.6533538940888034 -0.3645363015681312 0.03571376033075272 0.515460507542493 0.04685523077668014 -0.297854807921698 0.10991568594266694 -0.5432276387159184 -0.3919027519494511 -0.16902502581907422 -0.43691640821035416 -0.155239182987979 0.03775085778839462 -0.23567981380477024 0.21935504035069076 -0.6663949830062816 -0.2001431070313249 1.0988474651970805 -0.7029270019783911 0.5752052299964984 -0.2848615197224438 0.43010029928484933 -0.6289734570331912 -0.1543621818148435 0.04423585842724038 -0.06788093222866574 0.3830151176119787 -0.20927665199521236 -0.56673554134453 -0.011926926778881746 -0.6903299021005195 -0.04393805461407533 0.5179511880108083 -0.22779919641794658 0.9661946579771896 -0.15182690507901686 -0.29228433181512664 1.1874370105154475 0.3386929465147206 -0.23366878187033882 -0.8852946036840537 0.30822306513084285 0.03883633786217862 0.24333706386534265 0.35063310603369463 0.18964416826884334 -0.19449014545577473 0.5761036873136227 0.04081064754509594 -0.37762193232972585 0.17687710830944153 -0.5770714346367064 0.11673218027414499 -0.3003346220310795 0.211157550167883 0.47732227326929744 0.5421469889008965 -0.42555852721801446 -0.5684233013493926 -0.45813882128812516 0.12861496533279598 0.4001528185408271 0.038016709787443155 0.0891288641331787 -0.3670844417770042 -0.8349256509531257 -0.12991448750018936 -0.15420329238272543 -0.1976698384826607 -0.4155282658936133 0.09141709285406283 -0.35225534264550973 -0.21666601852221187 0.06399343367795851 -0.6306388765717844 0.3807666634518003 0.18213433345184918 -0.7949278361401594 0.843712459587819 -0.3527456654656547 -0.31170553864694306 -0.5075595302491661 -0.3584344694936672 0.2926029412078926 0.162133432072325 0.21679842361924354 -0.5879216815351638 0.012362422479912785 0.04117601601600453 -0.3174139052035664 -0.30168780600537415 -0.17330025976711771 0.5515730968050782 -0.03885228166887992 0.18540781505813939 -0.4951505809060278 0.7726957354952088 0.05196588728820977 -0.21195429826134732 -0.5642398023230637 -0.18368560604576048 0.08246401524940791 -0.4203946108628988 0.31349580893384343 0.10721554057563282 -0.0355936587691053 -0.45235662890824624 0.8741074388128741 -0.35882638061714045 0.7848139253109422 0.32000804385753806 0.07325752744032894 0.04891124177515452 0.286912784673551 -0.758531431413085 0.4030401677497647 -0.10850705728629452 0.33855411190284895 0.5053083934130076 -0.03378708273440461 0.40010002685843793 -0.33824082292398716 -0.38582164876135067 -0.37380631963722794 0.03156848963400513 0.4611318453453826 0.2544348599974395 -0.11028116212810593 0.3113496341627415 0.365359991707913 0.026387157517667403 -0.32735935887853446 -0.29954589947231625 -0.019724461284967278 -0.48557960609330814 -0.0832309495479325 0.1717186293832281 0.7601940015401006 -0.05766571472541505 -0.41409896342345615 0.08448050591613962 0.24339387411800587 -0.16428961331216857 0.3037022074283533 0.7848846255378066 -0.37927164764324545 -0.45092119532660274 -0.3470792896871955 -0.10655280640893354 0.13706167872848124 -0.38951555861672105 -0.1305350539404672 0.22658956022022256 -0.04267882829173131 0.26636402736617854 0.1260733549402194 -0.4961731240993485 -0.18060893437859546 -0.22584270255775477 -0.39500031761462046 -0.14013641205767793 -0.009475703432634867 0.1223660872212997 0.636475940875072 0.4663450217187326 -0.44869233228481403 0.4872724674097116 -0.37488537182259246 0.053230069378271995 0.04517035293547363 0.33624132324510936 0.2799402887831419 -0.3312020947860017 0.3750416965519707 0.303933027639934 0.24791125816583603 0.2817679762060439 0.15697693180037176 -0.16499720202910495 0.4346420208697173 -0.009164411484686816 0.05174118921735955 0.03764317720370707 -0.5475089650373812 0.2939527771698874 0.7777537223621288 -0.40593948902519783 -0.02804919790574622 -0.2281998566864537 -0.10255792925897739 -0.0303572735333085 -0.10288203178772834 -0.1071221500723049 0.36255173185262574 -0.34984801772275625 0.10471025923540835 -0.10846030457987534 -0.23057708153367862 -0.2693162485781629 0.3777483941082629 -0.2545145328721273 -0.12615060557136792 -0.3701607634716444 -0.3535006908570187 0.14934951461911317 0.7322205737704262 -0.07810356907303687 0.0904687345340865 -0.1127890374203415 0.40627857042609467 1.049664817652979 0.0273368134810773 -0.6711535217911505 -0.30257214418563627 0.19157994243244622 -0.3208664853239169 -0.5663921752485538 -0.5445017821117314 -0.7546482714670508 -0.1543525004412031 0.12332911616158827 0.04052342804826479 -0.0045619450209761474 0.03427851709514498 0.2914915817079296 -0.5890988695053776 0.3764238920429487 0.38865112597227247 0.5051142446188289 -0.12690852518018106 0.47444146055336417 -0.01801866962644178 0.002727789555430184 0.39233558270016095 0.25412415658092335 -0.08151452684583452 0.008498221357145466 -0.45039719032811576 0.984409175670582 0.060075808404641176 0.22122432224480357 -0.10298405158277923 0.4768138313406833 0.062133073738156915 0.4458306138183552 0.10678826305371375 -0.2163433768640587 0.2753475090862142 0.008237216846898 -0.13358182463375998 -0.8450765996634151 -0.3571220691105445 0.32272890215895594 0.3141710793176362 -0.21349312420376962 -0.5277321431647977 0.051501806792101076 0.5472100032869417 0.33671969467448987 0.3057855671063777 0.4611809586298512 0.2983322996151221 0.2030942096177137 -0.15418044955567103 0.18512283143232836 -0.3123687309074932 0.358091117126806 0.36277586315755794 0.0160066044446535 -0.3948938974868517 0.5756045737179428 0.20144377086029966 -0.025664737965592287 0.35858762278091333 -0.4863023900403486 -0.029311875332795365 0.18876062880191688 -0.27934086133203073 0.2468367892681304 -0.12210930102222889 0.10388748682383023 0.13963707709427386 -0.43868416689514733 0.2334813716017565 1.2117789370498937 0.1073684484588631 -0.23744277617873927 -0.05671228825674762 -0.5300896621399013 0.1862097056557631 -0.11265603217990526 0.3119138169298871 0.28472483359488265 0.2758419599746656 0.09941086380460423 -0.005762837642325247 0.11942363127642545 -0.5210610079151456 -0.20639325701648678 -0.2232911492435071 0.058374928953562305 -0.8169577684068673 -0.3122784342491096 0.16213213767486573 0.16199059073229632 -0.35815349633844656 -0.768548153337266 0.2568574249679214 -0.43078041674227463 0.18620821342914998 -0.49348808303069436 -0.20363315511619168 -0.4902445361340918 0.2937614586188729 0.6307473472195048 0.10107795977276528 0.2500197152600434 0.05156545131301365 -0.19919681461185443 -0.21597828529647425 -0.01208760439533424 0.30869472991618296 0.07197965002074598 0.526581754947101 -0.27477814185621496 0.16260663411578205 0.14598512813660075 0.037841898734873244 0.6467747165427999 -0.164160656257884 -0.1309215253387319 0.2852524777365722 0.2507869549404632 -0.4240504133647958 -0.15983923995153163 -0.3921304396751629 -0.4300876279481089 -1.032717421781617 -1.3085920626496192 0.3079306347832692 -0.6754244903819039 0.3633323248896182 -2.7005167366511142 -0.6828379714400483 -6.233464770620548 -1.074304976127154 -2.365245966070733 -1.031387354347404 0.011107430595461893 -0.44407970880327907 -0.6071986340135108 1.5259713967115418 -3.1377315281212916 3.862855102474163 -10.474452355110795 -0.8509329160564831 3.543347262151479 0.9229199298965065 -2.054879729499833 1.391344228395504 1.7260014499065073 0.6783976285539312 -0.23340991193593927 -0.7480616998658579 7.819384356944636 0.20878710201619435 2.5983125072713644 -0.6924495113567556 4.283603876319034 -2.22517665105163 -2.185135729831868 -0.2162653173958513 -2.6781930544319086 -3.925014098126952 2.2580036116590607 -1.7463157306862613 -0.67948259209906 2.265639009458993 -3.0956470829694247 3.9058866608566976 -0.4899890025543038 4.510425713499129 -0.3356843136145945 -0.8300776815258034 -0.3215583932199533 -0.4087990574636609 -3.125756412107678 6.43689838116883 -0.38174196371566477 0.5599373471431178 -0.526479453058328 3.592068394884838 -2.025950964288628 -1.250707423757796 -2.5057597799315823 -2.7553401181464525 2.7849278415814 -3.6741261417363287 0.3794070177021116 -4.35477693385143 1.8102625713855223 -7.122464874737965 -1.0068770304130084 4.292227312505946 2.8352452804876025 -1.3171799081209814 -6.894481587486947 -2.618744250342765 -0.3249929352478376 -0.8397364525905342 4.447181845400638 0.2321748277555187 -1.552989292166702 -8.153920507815288 -5.1178922137403235 -1.1453222004339156 0.56434623521825 1.1498800297101763 -3.054010753494649 -0.29453314976866507 0.7172355928702001 0.17551089015300553 2.2351913074397585 -2.217275616416172 -2.6995017048813326 1.2636297449740987 -1.5246632242444211 -1.4187678387579405 -7.691471310236188 -2.800153022551767 3.324618374692971 -5.424438146718583 -1.7571906128535495 -2.9322837374857884 -0.9481798112494085 0.3312303678985485 -0.7356464151145538 1.0171243828967154 5.088256698350776 1.2926243633468402 5.773087039321347 3.9172905149891126 -0.325729303061279 0.6941110444817544 -2.3954851435637017 1.2778352652006013 -2.602123739288073 2.301343062064177 -0.05913492526403415 0.3450692049729583 -3.102114792118244 1.2329613340465242 -2.5415540718569094 -1.4761351016990394 -2.9199099131979964 -1.8813632736255173 2.6210117146319933 -1.0347245797811015 1.579785864180903 -1.1112177258531588 5.351582510118535 0.25599658576630696 -0.536187263264695 -2.1808762160502004 0.490113011200129 -5.092851780825117 -4.149798098321945 -1.237285756995178 0.520447298993484 -6.6747765364377045 -0.4731953310292368 -3.153396424745276 11.33540295668941 2.23084877112406 -4.708880457714252 -0.2901494925098027 -1.3324264186579187 -1.8629782302890265 -1.7430165961116408 0.5125965995334661 1.7955072406625547 -2.94538466400915 -5.719022601887773 0.6179188154376184 -2.3592851068701375 -4.747090327926148 -3.2160749432279547 5.72197668897115 3.7896414858247702 -1.023666395312654 -2.5668524590319723 4.211745278825662 -0.30257345360696597 0.15811582017979298 0.3062199648860876 -2.249280607807471 1.8198737853482336 -6.8545042367389675 -0.4599040236406288 -6.92353584700504 -0.8014069856037053 1.4203214164199298 -0.9554632606699575 2.5778226918146347 -0.7947982746323812 -4.3544283989484525 -4.29299591783348 0.44916280403763087 -2.199651718094565 -2.2679660466715714 0.12305176536614758 0.6984947763378305 2.514843393534987 4.407256188152879 -0.4525913048814834 0.1854683730030912 -0.7531307370090929 2.5891133146433973 -2.311766365949153 1.2033137093446538 1.4896122524121203 0.29017748369400026 -1.7232260849977925 1.3927021719682473 11.372257454198172 3.862236856269019 -0.8562754722955718 -1.4902081503540572 -2.7274741467693326 1.0772071606485816 0.13603625841142805 4.3082883302280965 1.4799609084824596 0.12480374972038505 -3.2615671893616733 0.3806175722351289 1.764737057630383 -0.457433710423985 -3.419870850583783 -2.3123131531215324 -0.03458877188267023 -2.4656501614726816 -0.007001508009712993 -2.357469233252799 4.80112783307859 -2.020697205187508 1.777894274435274 -0.1968201522663206 -5.761354911599906 7.21979176107119 -0.7390539301290905 -0.07196998133129415 0.12065599840904635 -0.4973270236924865 0.34316490603212046 -3.4565461622976827 -4.080987357152236 -3.590913830743292 -3.5720630488000538 -4.536403008882019 -2.674772273587884 -1.7224320347045392 -1.1195461147321624 -0.33648072256112316 -2.0559728453153254 -0.2083305992171042 -0.927622648339923 1.2338962208513127 -0.7906927331069671 -1.798212753402452 2.4528025450617297 0.08769895863332203 0.058724596801166803 0.5554386667632865 -0.5245619501561094 0.2982030574961434 0.16729728234538954 -0.14991038977595325 0.21399966788394997 -0.19834572479468854 -0.26009355107471105 0.47484411962380724 -0.45495720891590313 0.24634963511306365 1.2885468678248513 -0.2543139620519394 -0.5449115403709122 -0.2083335574749052 -0.32611158566344417 -0.28630302136102526 -0.2656391982003294 0.13117338273922718 -0.5093460237909196 0.10990471547502088 0.14356027813717723 0.45143358314290183 0.47748534954603933 -0.09948409149921215 -0.06719627460634804 0.243127950840682 -0.2603818579452692 0.1279028499673464 -0.558902127907777 0.004262517040280669 0.11139116951191025 0.35237765582779235 -0.05854671701515215 0.59159610849919 0.18667544571000844 -0.593039591854309 -0.026132895170420594 -0.45881027272228825 -0.7306886789427767 0.014438553946190381 0.5631214102314199 0.4096644159553636 0.42377400155632977 -0.7940269771342717 0.42305801119312686 -0.030271549907297204 0.28169539448428604 -0.2470367777572242 -0.4223106356870676 0.3542737186436294 0.06864984757764665 0.17547684934530872 0.15999423240168242 0.3284713522661901 0.5919626211169504 -0.12129741055849211 0.3856367604406156 0.35512590386656745 0.30681931245892713 0.3161749917907327 0.12710452119882962 0.1738423215327442 -0.027429813494797457 0.3614390727459951 -0.20868865018047017 -0.40137243095635794 0.5905397760957083 -0.30104180927188845 -0.14876267497081802 -0.06334273007948013 0.1753430268733714 -0.39898098538610344 0.21376295546749827 0.00033634532438570124 -0.2775171327001142 0.8380102648328888 -0.49193043243320933 0.43562192292375257 0.1025995648525653 -0.14909942617443633 0.27128084187530915 -0.2513956007975823 -0.72799708808555 0.3165584422647594 0.023699375270282187 -0.5659101647880408 -0.5811749571511796 0.2768937706540452 0.4710715202353695 -0.005606584240190782 -0.39433700059136473 0.7351994774122362 -0.29088192762239373 -0.2318530185007645 0.47169641779225785 -0.4720193229230229 0.014521253666911057 0.34687595411674366 -0.615962948870345 0.0025949157519390828 -0.3525656658630061 0.26704904000700863 -0.02748921737134056 0.4566501815481047 -0.3841811175821946 0.002516059794677846 0.5461279956435924 -0.7589034393472335 0.003716068446192964 0.11689479427534237 0.08438086508293041 0.2528250721145235 -0.47067375738912554 0.01878651805988696 0.05134192966115933 -0.2603996161193095 0.03504528047702938 0.9667952955049451 0.13035409852582336 -0.19397021520453026 0.435155411447211 0.065984950171727 0.6635054865204115 0.20815154677861178 -0.5235625484460095 -0.2505382970836489 -0.2288891088450378 0.6462937878574847 0.5345827894251893 0.7828901493534148 -0.48123247364542804 0.06159525477166761 -0.4207408451598109 -0.032812041631940216 -0.4973235104617226 -0.09163695520486415 -0.350541285947114 -0.2236139203063521 -0.1322882401571086 -0.13865710297280812 0.47186533872491443 -0.09066128332036429 -0.1795103569621066 0.7348014374346574 -0.1829883309679239 0.5723707602290096 -0.47728650052397015 -0.16808600754013764 0.020530597173784207 0.9350366872820595 -0.5783296818016499 -0.07607881840901318 0.5824768674236261 0.08657858960115289 0.4547653585762766 0.18582692946115775 -0.2547247178650727 0.102391300033089 -0.2653778671369577 -0.24537277603013763 -0.4597346591598941 -0.3937960370930803 0.004758282523491667 0.5830714657542999 -0.24731284427872988 -0.14094801953695346 0.21023957445850242 -0.1946442713320227 0.15070220825004046 0.33513525589919924 -0.2898958259359657 0.32209069897974546 -0.5377010882952459 -0.04944842217839399 0.16812183213366205 -0.439649528577575 0.11478384324598556 -0.12425042742904041 0.3386027569189833 -0.22115154918991148 0.37792885562308953 -0.662132596994477 0.4938324687697867 0.08805681194478061 -0.02916746965211596 0.40434151684641906 -0.09543400440915484 -0.3299439220197499 -0.41345014118936263 -0.33328386010961586 0.4394949162152941 0.4426520221224077 0.570882750419296 0.23204217175374772 -0.5801533102696288 0.3036205526544173 -0.6114498428939391 0.16322540238185956 0.14577479251616923 -0.4646778062700574 0.3987696753709298 0.2717489748025327 -0.005315615916823213 0.4007232197471973 0.08655285949745198 -0.07290016713609458 -0.26971188068201707 -0.3570726650453883 -0.3438738090641464 -0.14858948996691548 -0.30087241860709935 -0.5045967033892443 0.2187965160188314 0.5285758659635582 -0.1154675322908551 0.03928302905026556 -0.4704145287325437 -0.17799353921764435 -0.08979747566875514 -0.15761695806083806 -0.2937876046614679 0.4957217134484687 -0.2815612266947164 0.3378930217320656 0.6567949706962838 -0.4905336184207017 -0.011400651255472483 -0.09394942748156818 0.13271134995155612 -0.4959998212939171 0.2737250355922042 -0.7222735719844394 -0.21369137744917546 -0.35944220950091477 0.3085803349682191 0.6626693436423537 0.9717568840011822 -0.16013013721566247 0.09955445814604812 -0.20005725143912184 0.06961342301847678 0.01708438295773389 -0.4638231166290473 0.13332534752759315 0.5849329731573281 -0.054121467703143494 -0.2117753597043402 0.06936957040922474 -0.4721858032083118 0.13290846606802104 0.43141989797024316 -0.17507536606294297 0.0899648514994563 0.156606389805815 0.0494125404264548 -0.4960057194010241 0.40415149612054646 0.232761129369839 -0.4443600403222165 0.2398164416257595 -0.400777545476786 -0.12364630214086499 0.11786399028827868 0.22348025483025577 -0.5369812320384186 -0.06512331871084089 0.20629064302216016 -0.08880767032488501 -0.15865118558370706 -0.015996576367627774 0.18878936420355988 0.02795449687123549 0.12313965929243151 0.6970588486884272 -0.029654230697073916 0.4454950348011788 -0.45293935467329455 -0.1898636524491545 0.06632498960483908 -0.36639350613706184 -0.023172026792619073 -0.16563059817182882 0.0022871382349878657 -0.03713361006418057 -0.442349674480198 0.12929173873801705 -0.33555370122710987 -0.5475954845592232 -0.16354579769420116 -0.2976783251537042 -0.01103825806652189 -0.3029747661959235 0.7512412716987421 0.05246162095763365 -0.21193534369207315 -0.3940969455262019 -0.4280077886935834 -0.07010525022940882 -0.2667783351652344 0.22899942184843144 0.21539190455451027 0.04010873670504306 0.7858717541243962 0.13410064571932967 -0.22071988962346084 -0.02428235479979871 -0.3260964618550762 -0.07517293625065698 0.8684717343660935 0.8087927748698763 -0.44296151045213056 -0.35620312723502473 0.04079538490052686 -0.014725834361412378 -0.20047758586006378 -0.20377631692106477 0.317814683573641 -0.0984830713290884 -0.5067147413988471 -0.042793109077987446 0.225297133441271 -0.6803369195896358 0.12648242893829706 -0.5434826012283864 -0.07935241850891626 -0.46300559679737824 -0.3827237254118964 -0.10222286094986845 0.07360805989457216 0.3896556833266143 -0.11076319250208068 -0.10293160900194509 0.4236083137079368 0.056797566231576786 0.5877290107500143 -0.22758228211329978 0.3515280544277031 0.7783424452228641 0.5614887943591437 0.15531585296836395 -0.14901533223765984 -0.012421151108527479 0.0048606580365497054 0.5416212266001079 -0.36757643735549517 0.23373397808406118 0.22305072735429546 -0.6981593456092571 -0.05441142628082466 -0.4022052248455114 -0.16317702698520373 -0.051192655693202076 -0.08584617019726053 -0.6591222133670508 0.5355633815206778 -3.710139694192788 -0.5989178766387264 3.0874644530275543 0.7007375932359915 0.015306544708296711 0.9219484005427075 5.542457558173912 -0.4663842892348078 -0.3671580542567252 2.6930019431865713 -1.6080860149183072 -0.44221035729859975 -4.613423433832286 -0.990460500098073 -4.1496036803420715 -1.02265961621857 3.2433590494500733 -0.3021159486028328 -5.9473949264457495 3.5432469260340733 0.9909823146741131 -0.958172525647732 -0.09815187163512813 2.1467408530727576 -0.8145377778461567 -0.9382693162924124 -0.24478050143271335 0.8767891829011163 0.06716534337802364 2.0136889211569495 0.5571942232579947 -1.2916240614262962 -3.323473779813032 -0.1874048586189396 6.210344908366031 1.2066696461095747 -0.9320503280120612 5.959209927875587 2.29322007487978 0.4352255653234122 0.5955841381023351 -0.5263721379336241 -6.046118286173936 -1.831468574907253 0.9500197639218954 -0.5609812527597221 -0.31014527698421596 -0.18084648722189675 -6.589458823673155 -4.626290073476061 0.23050637662883308 -0.8751388076244893 -0.1418607846776405 0.038647005034060745 -0.5682734995386947 -2.276730838885648 -0.22570535124214972 -1.9174000446666428 2.7209983103492688 0.28212795972333116 -3.2251691320566143 -0.13358203800235122 -1.2667388450858912 -0.3696666273989564 7.933613254324973 0.7857721956753316 -0.374500121903827 -1.33185441439506 -2.0563046079181153 -2.8574134648429212 -1.3377129664624814 -2.239150797141799 -0.19801248697932558 -0.5176410075693795 -0.4502943053264448 -6.404113727103672 -0.51102527683056 -8.962820606278813 1.318526930657917 1.1169330654901781 -0.7278455776186533 -1.5406592435570141 -4.110014089948683 2.5954982730660343 -2.965993515563335 3.2682598954126134 3.040542181961043 -1.412431763142238 2.735669731297627 -0.8043211971608567 -1.8260649466105798 -3.4497058124343463 -1.5127606418783295 0.16104437510279856 3.3207329387468563 2.0312910259340855 3.517256974399723 0.013635746206364617 -2.074033609900112 7.881176485559656 -1.5879521109623964 -8.229740854086165 -0.018111639212567 -0.6370929437625437 0.4937972805229622 -0.8781876896388864 2.6605502332203446 -4.84689720052018 -0.11221644747399574 -0.39104857635435897 1.0291655767449348 1.0837009664655155 0.6468632818446675 -2.182200169573398 -11.696314147139411 -2.749313805724267 2.532794180509575 0.5658949833429187 0.8609529205963299 7.718426561747427 -1.5469656117502741 -1.304045145218152 0.9082495939649567 -0.711661445807126 -4.166811144026594 2.701257931097405 -0.08145559645194593 -0.7027457532189302 1.3504085603189915 -2.8623877600555465 -1.5908219630506228 1.1967798106432468 5.637592255174902 2.2462279408416124 4.104928430848663 -0.16351456622291138 0.029960342527885153 -4.2596285375500775 -1.8630941228900337 0.7442024409418072 0.07961722540572069 1.730554263035429 1.6356272919139023 2.1010890403094904 -1.5151172499471168 -3.5963294694124754 0.22584591544833013 0.9322637416555295 0.05025121893107278 -0.5015682003481265 4.485799323917442 0.015588743639637017 -4.930044619996963 -3.6892838878771936 -1.070919467415632 0.6369916091902864 -1.0629688194730063 1.5551740928261988 -3.1655780348069693 0.8705194684308355 4.965842487727458 2.563558430389059 -0.5122752300430057 -3.542320121655202 -1.579160826613899 -5.662754844258639 12.371739575940138 3.115848939492191 1.4392439637865906 0.7002241131767409 -5.529777994850953 -1.0594233501296584 -1.4061998347958962 7.400529870775944 0.15090221232376178 -0.26581080118898964 -2.8929349564290354 0.03041879475423218 -2.9678103651588272 -1.2973371201377002 -0.28351484303133884 -0.6257053101635728 -6.506337494438902 -1.4764235964160861 -1.3158775805960188 -0.184231690263712 -0.7768993486151907 -0.30615275808865455 -2.3341811146714204 7.910295042857868 -0.42117408703309683 0.9062978668126109 2.4968964527225332 1.7238850365759588 -1.249432887165573 17.83676418057614 -1.1173225258679476 -0.4397892258738402 -1.3571972124332072 0.2957969021365061 -0.5287440926976128 -1.1145941999790152 1.9432642474729611 -1.1481330016536866 -2.656987450607084 0.3837891154478569 -4.362149690777194 -0.22505430641230878 -0.11165780905445996 -1.065930359685624 0.435563911972467 0.9294246327210898 0.23181107269857756 0.9400180717712122 -4.51247120228174 -0.11670942223956106 -0.6571999035108669 -3.6487349515527487 -1.0971794484687472 13.64715228180156 -4.218862064568035 -1.2367879679997793 -0.6765021699324179 2.161430378411556 -1.3084761823645543 -0.8241046890202571 0.13534036177528175 -1.4193337983573548 -0.9978547754196256 -0.036140181618185094 -0.41156275540094844 2.417206796625508 3.9792134216493706 4.474454958050531 0.7877657043068391 0.3439967366321318 -0.5708950779567112 -0.7467618422122115 0.11711752168810029 -0.2057321744246421 -0.7732291255800418 -0.28608089252269936 -0.19278141697714785 0.7020482058426429 0.8422647113218803 -0.42630824714960036 -0.548562791614952 -0.3871198204273877 -0.3587723097884583 0.17712395154276817 0.37904790840903124 -0.1733990771351098 -0.7196621306649638 -0.0357714437933717 0.17273788817530208 0.23424950704422298 0.05138513665934006 0.04279490666007647 -0.11415213247997938 0.17116106833671724 -0.38182396560281623 0.48742328773220195 0.1539160987461671 -0.5292002645678877 0.127529968710843 0.18843985544022215 0.26961954314838904 0.27044146369302136 -0.11683790037137834 0.382734743630651 -0.5772603803136181 0.10517167352218545 0.12751637441526426 -0.27556397189333603 0.5213682079359307 -0.69242598426936 0.4086602080758227 0.8513188846489621 -0.6655747911996147 0.33468164260428795 0.13085356476600615 0.8427696708212528 0.22826788979894136 -0.08028136442149195 -0.26008492101309166 0.07380128938032107 -0.5022642920427102 -0.2465227414175949 0.6676085899236285 0.11266417026855562 -0.7726715844149803 0.08121487839719606 0.19020797486802676 -0.15146445118656604 -0.07034114942525926 0.5618382802672548 0.11489264432167737 -0.19656015366480722 0.4488202226195889 -0.27111148359191367 0.6024474644986183 0.033432251017539404 0.1399605536210225 0.2053540997192335 0.7297217662073872 -0.08837302488905702 0.09918404337444137 -0.18811327843012107 0.013339967773115862 0.24510459262301537 -0.12474260774351098 0.30782720052677104 -0.14927515080539264 0.12379409263261966 -0.5656096294823917 0.19057813557277245 0.3541482754426456 0.33724169970720635 -0.061387491507778044 0.17328942410933834 0.02147675754053529 0.47403917190633166 0.06499081810144904 -0.12474984242777264 -0.30721145473350975 -0.09704463371983865 -0.35151101073664454 0.1272205277904776 -0.06411623067570268 0.897664351032609 -0.41618237269893904 -0.09361468046705501 0.06200037088669864 -0.008480656155404402 0.024101090180591516 1.1320671325947769 0.1738745865009652 -0.2773378319262483 0.256522971006096 0.10873364248831606 0.31236281904780816 0.30709617721381627 0.016754381960814715 -0.5556742979882765 -0.07124978425169526 -0.4917172086586569 -0.3459048437533936 0.30216153496290576 0.4302437073587956 -0.30196584221639733 -0.4923992405525853 0.13184553642267205 0.23261014675788777 0.24350166278400898 0.3209931930776338 0.15841457270438103 0.39047467523677504 0.2193481739219159 0.42906038184336276 0.5340775513313333 -0.2703385894554571 -0.19798682868626247 0.38134741557706986 0.8943510546139699 0.48856015165489075 0.6150665363377253 -0.698430112472904 0.27374309496780275 0.27501600445221075 -0.36875908300108207 0.5247604000748366 -0.3608773010801958 0.02871240273752371 -0.11464662868305826 -0.39823429703941604 -0.19859595907498906 0.45436914974602205 -0.4549871745586638 0.08827995143422405 -0.23892703491670494 0.10966191037302286 0.05113354032282609 0.44366358873834427 -0.12616617825620435 0.32912634954354514 0.4977914579005924 0.21185597618983731 -0.0076843299696877695 0.32422911801745635 0.20078216805577284 0.3141983183284397 0.10105848152215038 -0.21647524899918283 0.04258851666487869 -0.6072458533837296 0.6326622173546976 0.375345086805044 -0.15317278869906373 0.28158006603834906 -0.4402198902582157 0.05272728794224798 0.24940482068847755 -0.7036142181709534 0.4960487570888259 0.09409580999864957 0.1053282018988835 0.11799153236908187 -0.14150856629166167 -0.25824041994321667 -0.05533765033892496 -0.3570515124240509 -0.34929253531587345 0.1556831811759017 0.011370265148317618 -0.05578136461246208 0.4022049166533568 0.027467944114632607 -0.20058130557530196 0.11025999474845447 -0.2850928677414715 0.19737126001300526 -0.39225668288479554 -0.08496671435241185 0.010518694356610674 -0.06135216063511379 -0.0023468394999962036 0.34390568689436635 0.008722516190456006 -0.06406220101286281 -0.031211854523292885 -0.10485783816972707 -0.23045853851370054 0.6279485129246044 -0.289441553649123 0.3198685246096104 -0.6314196269844968 0.5212833271825793 0.24347243953352046 -0.0598097849148964 -0.4684535393645464 -0.15375906784539717 -0.5396651760326111 -0.08750956307434661 -0.3457724823461716 -0.2328509850092598 -0.37680888257194733 -0.5019889938911813 0.15840806076588446 0.10204220102769976 -0.11508912211461754 -0.333448541436288 0.47141533115953216 -0.07143323260403105 0.2232111418473624 -0.11355883384553901 -0.4196018915402582 -0.23871100855555819 0.05739899209987397 0.20741145163869582 0.3022856417314654 -0.24365609997426388 0.434025634500704 -0.3436691782957784 0.4298226933654449 0.2497356503267859 -0.2289130341565099 -0.4254771152877657 -0.2843374991157622 -0.10278733763911817 0.05451626259743888 0.48770140350076213 0.13216388033392606 0.11075425008490647 0.12992588527250543 0.15907236718043846 0.17291020455526993 0.4378281574398307 -0.30645998776339767 -0.17687254297249935 0.2098743441405747 0.4503959495834383 0.5288382268070168 -0.32770641799584566 0.1459182791579452 -0.2932055875391027 0.15848329892716606 -0.4534647838267142 -0.09146926087552675 0.03457659622542999 -0.1733066270238724 -0.12421179167522815 0.2730481218070205 -0.37687699788639134 -0.376317801888808 0.6307578789754067 0.6614498034861208 0.24236427456729517 0.6221358034488589 -0.9235987588024471 0.10228996878255749 -0.44024170108720123 0.42275530724453325 0.22843756619184882 0.9232652515551791 0.5080727228654468 0.2776537647323855 -0.3992774078477618 -0.3529128480363092 -0.2683600398135179 -0.3043321173160513 -0.3407925476058182 -0.27595692509855724 -0.12654539836081677 0.2874092607195679 -0.3703455975673162 -0.6656001518695096 0.21703355651134515 -0.14223238802416888 -0.3455593588342815 -0.15539695018802555 0.34146053884081307 -0.00238439419218657 0.031859529208301166 -0.23431158179854014 0.13099274743070957 0.2102413777890676 0.1827008667883833 0.8559570444285206 -0.5431592739762258 -2.605521019717306 -2.1571105154181907 0.336281919289794 -2.424786001241989 -3.5667425725920596 -1.1978749952237604 -0.6003165023754583 -4.132554189905276 -2.7655040963114903 -1.845703037906712 0.6861756092713902 -0.7488639852994788 1.1311228398034272 6.1182341407810785 -2.9461848890324434 -1.5813237335568708 -2.6895672980750236 -6.28921541508889 -2.449296892878461 0.16847294020089856 -4.501092924807124 -0.3145067353017205 -1.4320731392984631 0.7011671134720181 -0.8122085306417963 0.41966764238987203 -3.048307119493048 -2.866736828043259 -2.697826343911516 -0.8086420023053479 0.6231960149836915 -4.270613939308403 -0.47105723502026914 2.516371077212413 -1.0393594102407282 -1.5959931653729833 -2.928780830815264 -2.169691280825389 -1.9960246825745047 -6.535407636446175 -1.0218344069676144 -1.4782562135997561 -3.018304192389069 -0.0850575910893174 -7.456078478122115 0.7386333390422878 0.8202387256760038 2.6153184843770596 -0.3557102475020771 2.270015894501062 -4.654590975768787 0.4742888295933579 0.38824536943536325 -1.326245560817084 1.5971038429092834 -1.662330733513842 0.5411230558241094 2.1167206103934832 -3.0922472339366904 0.187490809084745 -0.6610024913602597 -4.322764533278121 -2.039182289838437 2.201307980450594 -0.354697073579965 0.29354586173007613 -0.24374608655000393 2.2854490743379476 0.30964678377000077 -1.1307750603381028 1.2031939859287695 2.586176570320676 -0.12706187531476842 -6.717024961807596 0.5772332807198951 0.40014842134345996 -1.6752383350313986 15.857019891410534 -0.9950754664214493 -1.8728681820678534 -3.0667877839344353 1.7140750182981215 1.3386652553553047 -0.8216134903818973 0.17247781476681617 0.3250476480447874 -0.837560817687164 -2.0687411706620162 -0.7117875621894569 -0.5612652586543216 5.144867101973862 -0.5465708938755057 -0.8122651768898869 -2.2187630125164874 -0.42517804393396286 1.9498873172946136 0.09977986088117977 0.8822347381225234 -3.1149354305722787 0.6045057423432278 0.05901053780876652 2.40483858859944 0.26254438621228987 -0.7886479846195407 -8.870776809459535 -1.597504141021176 -0.6853356941158438 0.09216216368258727 -1.6371719150536312 -6.403211188144738 3.661619009570112 -1.3470159296167283 3.4463192213904206 -1.4997045721303877 -1.7505314025953482 -0.9670852631844474 -2.2064643279198357 -0.7998657383592078 4.679071618411685 1.4145286214118522 1.5735146374005387 -4.341345575827755 -0.3209500023757748 5.713111420550466 0.15869876765682797 3.060644974673362 -0.5260238959635428 8.3656255210832 0.013793702937335877 -1.3451067282433793 -1.6523979510997655 -1.19390577867045 2.311586659849139 0.8753435535639076 -0.01584339036487382 -1.320929514747766 -0.9356863287072705 1.3297751114211864 3.1117604609772305 1.2380587762046666 0.7394620250667098 -0.8640677771805709 -0.9970889521396435 -1.813144842602354 -0.9938276470450262 -1.5776298793503798 0.8942621836459064 2.0922109589403575 -0.6646050906331646 -4.978742549456403 -1.4788230464986625 -0.9583351531461749 -5.372240213050805 -0.9089651326056508 0.4791236851006995 -0.24225872938911622 -0.4188445301882936 -2.6266406940747107 -1.0592652442188555 1.8487663044085147 3.4696741088394445 5.636748112230007 1.5153899088960248 -2.1218458389400427 0.4404937208072815 -0.43136242984947 -2.0973882072897694 0.7643859362953572 0.1497018330844102 -3.9755215779875406 -0.04166152674422673 -1.8742435716579746 -0.39785511162369025 -2.0376964561431254 -0.8692882403778092 -0.22218658010243228 -2.593517276285994 -3.393280380536484 -0.21388289951604714 1.75584768972148 3.8656271963933833 -1.71716920976208 -5.376140966605326 -0.027461017249753906 -3.382000147769038 -0.7386463357962202 1.8356366568541003 -0.8881523715936955 -1.1359216581912408 -1.2081490210355106 -0.49522116949245637 6.765928737837998 -1.5427810901040493 -0.533580622135937 -0.17370991203602626 -12.50584045394639 -0.6197727793717279 -2.0656809005903347 -0.10660990572143753 -1.4237874584562251 -0.7028997339651176 0.7027792366909279 -0.8122755928241622 -0.27181488990699554 -0.7655405114935605 -0.05410430242953499 -2.7038494217840676 -0.11468965844978365 -0.9304942661094745 -0.3896018323486809 -0.365835818451736 10.176632221682999 -1.039593228519471 -0.1940376848444422 -0.5746728044683355 0.12232575487020397 1.2969064263281793 -0.4942692569192841 -1.3874969863614388 -2.760580305602015 -6.282575915198594 -1.1684036744969668 12.422590644170285 -0.7357435568889651 -0.1524338638577981 1.296387298736535 0.1681223896807573 2.817343859613953 -1.6442129476213243 -0.2884443672226877 -1.1203931734486068 -0.9328295155653008 -0.364780225316499 1.422549352447038 0.8424749750018852 -0.027442630667381125 0.07905936941617217 -1.3415161016878716 -0.16568024947314539 0.20908707099598473 0.13958890739127403 -1.175186287297656 0.23334596934960652 -0.6428841655639583 -1.2295595606119976 -6.994053808047948 0.09959422429587239 0.31263399784815843 -0.7202202343821854 0.5034115237063589 0.2463220704928525 -0.3256481798849186 0.1732374473559413 0.9382884537128943 -0.16351735105992282 0.12578627485893296 0.4593200321518877 0.993154410929154 -0.7436561976101134 0.08293141335751947 -0.2794578646139757 -0.22855514158718132 0.7308877424365652 0.26870373412860005 0.5634299305861991 -0.93085376350998 0.5155766673061787 -0.4705170478084871 0.17896457914393502 0.9011711256469066 0.31385707391238005 0.0454516562900099 0.5205858048077959 0.03462997380139895 -0.15350963385868252 -0.020133229747949732 -0.3969443573515264 0.29829800596729733 -2.343392361346117 0.12864549487447224 0.514735315576566 -0.6346576346458184 0.10389947081611754 0.26208316841760354 0.7521626935970683 0.5584586089952069 -0.1829622784609988 -0.12147480816774349 -0.02995404048105981 -0.46848679535594157 0.8307614839160552 -0.90906192263077 -0.048568213755932114 0.5335490496109723 2.883816384945438 0.5538041231997692 -0.1368727569273245 -0.12225687983320481 -0.6640638502883636 -0.3098373027766862 -0.15157803505471662 0.22238513485770686 -0.3496055047358247 -0.3250494462454703 -0.22724602945129072 -0.3838852840925997 -0.025314386208013004 0.9770468712948279 0.3684540969834643 -0.15984542025653733 -0.252796273312381 0.77207052610849 -0.22354205127746368 -0.08284880720293816 -0.025061363517061938 0.2724542697800758 0.24380133639055182 -0.8573257002047457 0.4332066132290944 0.1923962539640358 -0.28693900655766086 -0.040169545767968766 -0.5074912610009622 0.09135839724098208 -0.4179264039134462 -0.1748987833705009 -0.1579824939251408 -0.20824064422353347 0.7442071786532735 0.539361418707536 -0.25281605584130556 0.30507216949016835 0.5224843091671144 -0.14035601378191162 -0.1131678357650791 -0.5761678973073437 -0.04679951169760628 -0.1330380997434592 0.2804382992304962 -0.01959716898405187 0.2056785573929965 -0.044888000238098184 0.5583567030634181 -0.682219219212669 -0.7072666644993081 0.3504736159132007 0.08091888454322854 -0.13420028582318128 -0.18160742302054494 -0.5884992233515038 -0.1002161383328213 0.030875733142149055 -0.1731946308297012 -0.15696068316392062 0.15788356443597518 0.7897573041417622 0.7064721131593013 0.20874845189197486 -0.21103171602032153 0.2034840910387948 -0.03768086660917573 0.3187105255583798 -0.036575662367011874 0.07938962756742324 0.1839481164728976 0.11986778035708744 -0.17192006961362274 -0.12435694556587588 0.3588245931292635 0.002694552789401026 0.0801351745433485 0.14856101066022284 -0.8732686683784849 0.09885906194825858 -0.3237153242922062 -0.13110682589684533 0.13189938944637467 0.03128823098685908 0.456134611167068 -0.2897357696154346 0.03445341056663707 0.2816355927262794 -0.4156245158376738 -0.3741578499869532 0.30823670367046696 -0.19917554894265152 0.5847698898583963 0.43766396815556413 -0.009296120989570836 -0.4322985309850415 -0.3578873123575257 -0.5778536280701142 -0.05117831145896904 -0.6118127924216323 0.015863602668639728 0.09508983966869203 0.40493813743238105 -0.019658712641018043 -0.4409481349780007 0.23816729449684498 -0.34622541061763284 0.3063200690727759 0.4080210373020633 0.10591256523310216 -0.3500696325419013 -0.5896749761059584 -0.2829910779838796 0.44588936352040925 0.8199085191472361 -0.2084267724619283 0.10416143531108345 0.40656417029855774 -0.09298305561377213 -0.1702162860974639 0.7634882428710212 -0.47952697467997385 -0.3941501045553378 -0.1821474975963021 0.7061719804537432 0.0656556832020213 -0.5108361872176598 0.22968749494524052 -0.04903922322464783 -0.3473022586702082 -0.08612847164276721 0.5979916227380058 -0.14824661123619443 0.22454620382068022 -0.16652566572004535 0.24716383587749496 0.14294631945770991 -0.34557351872351794 -0.11940683173467649 0.3461120733252954 -0.17199492206680084 0.06880862685886929 -0.11385141748333336 -0.1459618746345523 0.446420334126872 -0.48060206052052273 0.02580773993698418 0.25260052828079127 -0.2781296056497432 -0.4456836770416786 -0.5937995940038432 -0.12951055167128006 0.8552638039970579 -0.015858059296308843 -0.16076730379517276 -0.35257645192261416 -0.11464802344731281 -0.7815543330480733 -0.26075840167463354 -0.06855326200595692 0.029274553288971782 -0.4736693314618663 0.18549752404486228 0.567536573709241 -0.360424871498731 -0.012191140822201536 0.3316423663264708 -0.16163475887043355 0.41479194250210477 0.05610575883655825 0.7387355228982618 -0.09626463387065823 0.029488903675438775 0.06434456327530276 0.22914153641140309 -0.5156506256994291 -0.05214047793177116 1.1402159071850222 0.2331424779057533 0.17526103365706752 0.5635056550344114 0.40926136759570364 -0.037842998561800956 0.14417798136411247 0.5869213137986242 0.7702202218979874 -0.3049040509742203 0.2819881565071664 0.7726424862849454 -0.29497894559989685 0.20448731987935603 -0.18632888878235934 -0.011392371629742196 -0.036437780950332496 -0.6947325619832468 0.39821823568173287 -0.49042882582339087 -0.11193304161232252 -0.46983706194776054 0.041857092565192155 -0.07416240144332385 0.09290790253840978 0.34302235144267873 0.7076609313836689 0.44749663983105875 0.0805071702940613 -0.5722325901651965 -5.9878560072659316e-05 0.012259502615895928 -0.37299157811140615 -0.73334605617259 -0.14275492338771759 0.02006091788714368 -0.347348103706786 0.23886532255224277 0.307569213887292 -0.33751751979942135 -0.5647930026194381 -0.1048352632288662 -0.3709857849357239 -0.10541220608601452 -0.3200448899481168 -0.4935064019258822 0.38234058276377075 -0.34943319609465895 0.27925050104407634 -0.23136404218064482 -0.013809744433829109 -0.13713698182169248 0.31285351428379027 0.48007394981533724 -0.3305925541429371 0.8352644439900371 -0.2818185634808603 0.5493292048594574 0.1954341114854791 0.24006446512332316 -0.011540817945284786 -0.08838988010758006 -0.5365556121965913 -0.21240499711181315 -0.2322337220903441 -0.023228356213263992 0.5231595122926193 0.053454992320185045 -0.6218930502123693 -0.1701101029062153 -0.3851273847115127 -0.18611459495251698 -0.2576343641904223 0.17742752828503655 0.5544807896397278 -0.28656147425606887 0.09588897403071699 0.15972884706176926 -0.13026268552983078 -0.6963208086081132 0.6283548305356653 -0.27754705557715975 -0.42566656191569896 0.40286712579769457 -1.1843064118804767 -0.29249385212391227 0.28097219248018207 -0.09826621615551995 -0.22970648468353036 0.04778395321745808 -0.16187093175210976 0.2683955530999576 -0.14405934462757303 0.6589764942638806 -0.020322463107533807 -0.0888938714179709 0.17118196130466037 0.10059452825918558 0.2050072143074001 -0.771940180289802 -0.06632281002604072 0.0916835470948124 0.2948073012184415 -0.24979357213454106 0.14408194133226712 -0.026452771528413428 -0.939262480470717 0.029448829059930987 0.34713718950065703 -0.7701614147834406 0.13760468598853476 -0.3197182227004615 0.06438333654760618 0.08121746780817159 -0.5792721304451383 -1.0907522620812724 -0.26437056804918274 -0.2026647478694203 -0.10373360104147272 -3.8025826370485 -1.130698501838607 0.9581077439985317 -0.03074947649248288 -1.9571675071089627 -2.88353177423864 0.05231970526086893 -1.1662767024968574 -1.887350755204225 -5.549254859920906 0.3658286891065954 -0.9676830379739395 -1.0087883038974295 -1.2135146925505904 -3.6428791354504337 -2.417347023923628 -2.523086749326648 -0.47056378750729355 -4.677782171717716 -0.851196293593925 -1.7400294812588384 0.06589351735997505 -1.0898159369453257 -1.5090280776337337 -1.1943178239143686 0.3051642398966845 -1.213750121094955 0.7983032928208301 -0.24383582468219253 -0.6633611221944108 -0.7679479431205076 -0.17854194810837037 -0.8247983777157142 -1.101620896212336 -4.943249904793961 -0.5541929412806904 -2.6498249152405497 -0.6267519423091518 -1.7001798685633251 3.7496819746413275 -1.6832560807844688 -0.7840357875596046 -1.9694132548216494 -2.926252753488132 0.1038036775080563 -4.472137414758717 -0.12002751634039878 -0.24737754836061146 -1.4535452859527196 -0.9657512825200817 0.5989932632074063 -0.7736693635133207 1.2617954564956508 -1.4048519389499736 0.6168519746688917 1.577350963018945 0.43130424375813403 0.3436153548115344 -1.3863016822191307 -2.293006792951709 1.728511029620253 -3.084178030989918 -0.2850259249774493 -5.356246938478421 0.3601180185836066 -1.1960374515608705 2.4000619438968904 1.4838176960060012 2.593714817503441 0.47715258814138517 -1.1893206349546892 -1.3937692365417844 1.1138641816645647 -1.863723781266793 -0.08836885179614215 -1.8681894040581577 0.9110637299753666 -1.2511593412688877 -3.1162568867224136 1.6424817095779898 -1.8409467736384508 0.09015419954959882 -0.7005426600704397 3.203999840069882 0.5546874032889675 0.41684981211629835 2.064514358349174 -1.6349548916583805 2.7305241899761348 -2.2060352061667388 2.0039416806129053 -0.6958658285947287 1.8113661955139995 -3.4744891057749174 3.806348746910606 -0.41058479342195403 0.9872742177207489 4.5855018538917935 -0.7744582815716102 -3.3381846864949467 0.033159148584015044 6.570919700246036 0.4663430818950496 -1.0231897475817755 -2.0526116517234376 -2.10346539078304 4.712663231918984 0.18010769278193317 1.0521035623943875 -0.012356364490658111 -0.673224087040135 -1.357387517158459 -1.6999761158675382 0.6935787525972774 -0.7805840159586553 -0.2047576291667947 0.45195171712870236 0.5012033875217542 -1.0707361065556897 -1.8237975839079301 -3.640118942360783 -1.7455470328946958 2.256109189399129 2.096596850844459 -1.3121804638985968 -1.3523716995923336 -2.7505105003483905 -0.5873387328626367 -0.6591652890822618 -1.7019840310300316 -7.171958142688665 -0.9329684644532326 0.10669554953219977 4.758991861830674 1.0439642117304038 0.03301349906651548 -0.8312615254451728 4.628324923838491 -1.0851326830768475 -0.9922940261966903 2.4686466403978238 -1.5679487095776867 -2.521409941658465 -1.952983294303051 0.9862147999232573 2.7584587523921553 -0.10123117331743342 -1.376498417092449 -0.2658621987622966 -0.5382552702899754 -4.550751895198789 -0.7065929544206918 -0.1397915432344926 -0.6986940484423613 -2.1673778770236174 -2.6244630336301586 -3.4666027191800883 -1.1148210600315656 -1.0145173352590788 -1.1112207739621391 2.1630416355529754 -0.6848187155655769 -1.6344989103562853 -0.9307909833806605 0.0836319269877815 -2.1783186739497546 -0.1178460924008788 -0.19113506367707994 -1.0064468220396448 -1.2934063422730948 -0.49503034336357254 -0.2655995914862749 6.13532940950502 -0.7727385470844478 0.6081947585486746 3.1341981060693325 -2.6715514146466934 2.5096833827840843 -0.1438688234236631 9.19823473947411 -0.7513545458324852 2.5095423520210884 -0.7157181999391244 -0.7487264966726973 0.8647126829627821 -0.7958063544384143 -0.4773701001699267 -0.8919535920984184 -0.5547403805343345 10.700743333702095 -0.538295377100219 -0.5414647480128899 -2.731954240164887 2.061566034258908 -1.8022104711989064 -1.5617973568662582 2.460289766984292 0.07350069474280131 -0.011820849482432833 -4.7457816884278445 -0.2769029290981149 -0.4724921357528449 -0.9782983609249035 -2.0638822360222644 -7.689233253602777 -0.35128057442391064 -2.521194927809246 0.9193355445686376 -1.2118204602722014 8.37694114060905 -1.0284575828617595 -0.0761689045905297 -2.992521319492933 -1.2302581168432447 3.7845793938208354 -1.6591317696065175 0.19932269535290822 7.064037107619792 -0.45145626271543426 -5.868572102788599 -1.4455554021651538 2.2272702349919413 0.30525629436213986 1.939537314840385 -2.4526538471814727 -3.4651123409433494e-05 -0.5473389490953678 2.3231979842278925 -0.8354680027105941 3.31641743280628 0.44006603834120217 -7.303531016135517 -0.474900100985023 -0.34581324461598967 -2.8744529965647816 -0.7745373382103878 -0.5923237801990243 1.010678682635495 0.06364815685119894 0.759974458020164 0.2847105036440623 -0.2624266076345266 -0.22023605843484784 -0.08575474084407185 -0.20822473355943408 -0.2046126566345508 -0.44247860719212023 -0.2839604324317446 -0.03686375709757707 0.4510141544070402 -0.13404361914514917 0.2379631312335865 0.454125949541455 0.09188285109391327 0.4986877633385829 0.42638084859777237 -0.10286885372956918 0.0731992929649306 0.2288017478342062 -0.9793953019672004 -0.2808191991693594 0.003585331400585124 -0.28933975317823923 0.2856505500382845 0.13765422584095652 -0.4506594300911643 0.3262937099084279 -0.13565614577507523 -0.0035568943480666425 -0.06324019384509502 -0.07491413617490675 -0.4344864611941522 -0.8845599455414507 0.49657038894686206 0.3557640082778941 -0.2839103199096666 0.06865067562049114 0.19087028073331752 0.24583601181861559 0.7449325061902179 -0.19111530354337278 -0.07425617108203557 -0.45322217342499777 -0.47385840151718944 0.24860869300298574 0.10420871808899385 -0.11188230197802754 0.10266166588062905 -0.37542267573350757 -0.311406707712241 0.009653280490988349 0.4427070638126792 0.356699675731259 0.5761469717933425 -0.031725348881337906 -0.19888019083106984 0.37797733452411725 -0.21091861853863317 -0.3056777066672652 -0.2888233485890629 0.0022335768049647374 0.22229982923887345 0.06055700650568771 -0.3182130813645672 -0.2450117499403497 -0.058039640305599605 -0.10334696882794805 0.28042821280035696 0.30575680815837963 -0.3790058323072404 0.3151984593425783 0.16190350708582993 0.09898476265474276 -0.34982737037531464 0.45435702730668137 0.5971962313498623 0.4190472962908958 0.6080206273140092 -0.7884389456912291 -0.6337369243556958 -0.19543592363004714 0.39827551544217077 -0.07548704231625453 -0.33571799788468143 0.1803041268303009 -0.05249326531693584 -0.04821320796494453 0.10597213060190987 -0.5837180658283493 -0.1990242997168174 -0.5142370832192201 -0.41005142246906345 0.3265609064244216 0.0920103173044571 0.196789244663987 -0.13756212876539758 -0.12082742617105605 -0.257514685445018 0.1349765086082181 -0.33068581677500736 -0.5947388443523233 -0.3184448025257861 -0.5744048163264992 -0.32368490000281824 0.2533343472879774 -0.3029667874194021 -0.1914822431079885 0.025559882112560328 -0.01370848991867391 -0.31137487519772594 0.4521827963938287 0.33348447524533126 0.253103639562656 0.2790930240574204 0.13875993701126504 0.1300734855757366 -0.8225850925338355 0.07680199768997224 -0.905965071253204 -0.15489670286143098 0.5789189990015475 0.2756950813550563 -0.08035034883735706 0.1715038619163429 -0.3275438613778549 0.09905846827364592 0.2368763167392034 -0.18230471849033597 0.11644129365723996 0.4651611303276049 -0.25903888620211496 -0.31311860441229156 0.42972949035498986 -0.7137501426820669 -0.09851942459036181 